svm_type c_svc
kernel_type linear
nr_class 5
total_sv 27
rho 0.00071866540126136154 0.030070724176831452 -0.0069644447368693149 0.31897353482230806 -0.010867281928607192 -0.010293433054514699 0.23148389308397468 0.050707868626665473 0.31081947592008163 0.29354768930527081
label 2 1 3 4 5
nr_sv 5 5 5 7 5
SV
0 0 1.2467636573493159 0.30088926715475434 1:-0.0034670508 2:0.027513556 3:-0.056964073 4:0.010289277 5:-0.0069997478 6:-0.061618671 7:0.039029274 8:0.089872524 9:-0.019824099 10:-0.010952508 11:0.019705411 12:-0.081213675 13:-0.0083313882 14:-0.052252427 15:0.014858499 16:-0.028545734 17:-0.06526915 18:0.034943137 19:0.038860634 20:0.0098744631 21:-0.0056079682 22:0.082299188 23:-0.01416711 24:-0.016271444 25:0.032759614 26:0.032477655 27:-0.012173743 28:-0.066431753 29:0.026784597 30:-0.003609366 31:-0.057594512 32:0.046808474 33:-0.039099619 34:0.041041806 35:0.0082125878 36:0.049229573 37:0.0045167627 38:0.038568024 39:0.029143332 40:-0.030324437 41:-0.019167647 42:0.060463604 43:0.053247523 44:0.017881533 45:-0.029115014 46:-0.0098809646 47:-0.093533821 48:0.036887351 49:-0.078479327 50:-0.00095055514 51:-0.0038851856 52:-0.034577567 53:0.037652735 54:0.048440747 55:-0.012596403 56:0.018228574 57:-0.034803323 58:0.061479855 59:-0.040214393 60:-0.042726476 61:0.02804389 62:0.025610788 63:-0.0071528219 64:-0.026521467 65:-0.0037230314 66:-0.080163755 67:-0.089342907 68:0.027545407 69:0.0047076573 70:0.032419045 71:-0.058837228 72:-0.016173828 73:-0.017124565 74:-0.067202367 75:0.10315851 76:-0.062665664 77:-0.032748189 78:0.049832545 79:-0.019749004 80:-0.095030509 81:0.038536903 82:0.060115702 83:-0.054018039 84:-0.082714029 85:-0.043407455 86:0.075008214 87:-0.014260291 88:-0.032327332 89:0.003160859 90:0.022705546 91:0.031251933 92:0.015958704 93:-0.021456135 94:-0.014343925 95:0.0052727219 96:-0.011122967 97:0.056515422 98:-0.036641665 99:-0.10764852 100:-0.016795203 101:-0.052826419 102:-0.022469426 103:0.0053735226 104:-0.011208658 105:-0.026657755 106:-0.090835743 107:0.035873182 108:0.03362903 109:-0.00089954596 110:0.015874676 111:0.020385165 112:0.02250566 113:0.076259747 114:-0.04779309 115:0.026170025 116:-0.0092709949 117:-0.025715437 118:0.073952518 119:-0.10884902 120:0.0021606109 121:-0.061109975 122:0.011999232 123:0.065877356 124:0.018204704 125:-0.044660863 126:-0.00094573264 127:0.013457233 128:-0.004020995 129:0.0079431394 130:0.030425167 131:-0.0035948653 132:-0.033541404 133:0.035960011 134:-0.0072815982 135:0.049344789 136:0.051464591 137:0.10892967 138:0.035098176 139:-0.042440087 140:0.034427177 141:-0.019796653 142:-0.033403866 143:-0.010212577 144:0.041051392 145:-0.048112322 146:0.011018045 147:0.054771516 148:0.045692552 149:0.00058672461 150:-0.01631528 151:0.030979836 152:-0.051830038 153:-0.074492067 154:-0.073623262 155:0.049696364 156:0.03363381 157:-0.064373158 158:0.075551331 159:0.026889125 160:0.032989092 161:-0.00089377485 162:-0.00063682755 163:-0.031006444 164:-0.0099492716 165:-0.0060331966 166:-0.0028207623 167:-0.10267799 168:-0.0057874797 169:-0.0091000767 170:0.047215465 171:0.02368876 172:-0.063805595 173:0.0066421926 174:0.051120769 175:0.041767523 176:0.034817163 177:-0.007319171 178:0.018816547 179:-0.063375838 180:0.033390373 181:-0.013082492 182:0.017353248 183:0.057803214 184:-0.02268254 185:0.020370863 186:0.0015090224 187:0.1158197 188:-0.032605961 189:0.052316505 190:0.027190931 191:0.08450944 192:-0.01834772 193:0.035476815 194:-0.0091723893 195:0.037961472 196:-0.0092751598 197:-0.095710948 198:0.021478053 199:-0.0042905975 200:-0.0089086015 201:0.063869707 202:-0.0017872119 203:0.025717501 204:-0.0045194714 205:0.032003295 206:0.037542641 207:0.049080625 208:-0.036582693 209:0.0091501232 210:-0.018124213 211:0.042363022 212:-0.05136434 213:0.032564949 214:-0.020651326 215:-0.021229528 216:0.00072328583 217:0.075158998 218:-0.036490895 219:0.0084022526 220:-0.037415773 221:0.002856507 222:-0.022104206 223:-0.011133602 224:0.031134043 225:0.044194449 226:-0.016798735 227:0.038825475 228:0.064556494 229:-0.012940897 230:-0.028957767 231:-0.02787474 232:0.074139193 233:-0.031621143 234:0.0044053243 235:-0.019195197 236:0.062437885 237:-0.047815494 238:-0.015344112 239:-0.00055096735 240:0.010703861 241:-0.12372811 242:-0.054538876 243:-0.080617547 244:0.060954224 245:0.038436931 246:0.068649769 247:0.0018065539 248:-0.041705944 249:0.031924546 250:0.074665055 251:-0.022398759 252:0.046195585 253:-0.038850103 254:-0.018403644 255:-0.017464861 256:-0.028402817 257:-0.066576198 258:-0.015212594 259:-0.0027552426 260:-0.053853631 261:-0.036251716 262:-0.045946781 263:-0.013935402 264:0.027778707 265:-0.048026778 266:-0.024140796 267:-0.019086307 268:-0.02167324 269:-0.072159626 270:0.0039288788 271:0.0049099033 272:-0.006552584 273:-0.038963724 274:0.06447202 275:0.047192238 276:0.016276406 277:-0.0084934682 278:-0.013355111 279:-0.010414999 280:0.061881058 281:-0.044819247 282:0.016632399 283:0.0034319735 284:-0.10118595 285:-0.030065587 286:0.025782378 287:0.038909212 288:-0.0048755896 289:-0.013031292 290:0.041417789 291:0.012043156 292:-0.027902905 293:-0.025604539 294:0.08781939 295:-0.0054909065 296:-0.056213055 297:0.014572342 298:-0.035602983 299:-0.0752372 300:0.019512827 301:-0.057745133 302:0.077047653 303:-0.0059011574 304:0.071416743 305:0.034281235 306:0.021111455 307:-0.040422533 308:0.028875044 309:0.043768298 310:0.00098327326 311:-0.0077365632 312:0.086239725 313:0.044149175 314:0.060553581 315:0.097661428 316:0.0020374788 317:0.094090968 318:-0.053774074 319:0.031217396 320:-0.071110658 321:-0.031052118 322:0.0036441921 323:-0.030613564 324:0.036055636 325:-0.028424554 326:0.069354326 327:-0.0033314901 328:0.0061628758 329:-0.067595772 330:-0.044109683 331:-0.042446494 332:-0.011973263 333:-0.0076623792 334:0.052690398 335:0.014399377 336:0.016867062 337:0.0024427997 338:0.0084827896 339:0.024900487 340:-0.08104413 341:0.037335135 342:0.073510781 343:0.0068420824 344:-0.014857301 345:0.013451744 346:-0.03839054 347:0.039521638 348:0.040741235 349:-0.023804484 350:-0.007627313 351:-0.043507963 352:0.072959229 353:-0.0057357741 354:0.027642574 355:-0.026444189 356:0.028125007 357:0.014950416 358:-0.066763185 359:0.054624554 360:-0.036196414 361:0.05593279 362:-0.036139615 363:0.034631625 364:0.041873839 365:-0.0097226864 366:0.053165041 367:0.02254924 368:-0.025496228 369:0.033289958 370:-0.06285356 371:-0.038566012 372:-0.0017366228 373:0.0046460479 374:-0.031460308 375:-0.069979221 376:0.052492924 377:0.012155998 378:-0.015890492 379:0.028360642 380:-0.030334603 381:0.080754161 382:0.0036024651 383:0.10882699 384:0.049792748 385:0.099152654 386:-0.025611985 387:-0.022191774 388:0.026095383 389:0.0067667929 390:-0.0046944846 391:0.052423194 392:-0.025213137 393:0.039887011 394:-0.04914834 395:-0.039387263 396:-0.036742534 397:0.00074869563 398:0.056911834 399:-0.046055838 400:0.016796259 401:-0.0046544028 402:-0.061969627 403:0.01041193 404:0.0062050074 405:0.013808511 406:0.03086517 407:-0.056872666 408:0.032478105 409:0.10007848 410:0.025460107 411:0.072956741 412:0.081609063 413:-0.07106676 414:-0.070093527 415:-0.036573764 416:-0.040173341 417:-0.030322073 418:-0.045370486 419:0.0013948196 420:-0.029987669 421:-0.010888726 422:-0.02622373 423:0.0033679053 424:-0.046898387 425:-0.02044156 426:-0.018433571 427:0.076110817 428:-0.040932152 429:-0.011864192 430:0.021858299 431:0.021116236 432:-0.0045076646 433:-0.037327979 434:-0.05380512 435:0.0421497 436:0.03635538 437:0.0078488318 438:-0.10015815 439:-0.011911658 440:-0.019956172 441:-0.018332371 442:0.032298755 443:-0.0091057345 444:0.0028013168 445:0.039772727 446:-0.088613883 447:-0.08070831 448:0.11618001 449:0.032876737 450:-0.024943054 451:0.028419051 452:-0.04387087 453:-0.07688006 454:-0.040830798 455:0.0094722062 456:-0.014802008 457:-0.0057358183 458:0.0088340491 459:0.054799896 460:0.0037851792 461:0.059148245 462:0.097965255 463:0.034046941 464:0.024335083 465:-0.014623395 466:0.086691655 467:0.062208809 468:-0.012405174 469:-0.024709385 470:0.033500489 471:-0.037126146 472:-0.028055841 473:-0.038994923 474:-0.086767688 475:-0.018250024 476:-0.0064238524 477:-0.078567103 478:0.10963985 479:-0.033087015 480:-0.080342591 481:-0.034138061 482:-0.042545903 483:0.050486311 484:0.05724052 485:-0.019167589 486:-0.053026598 487:-0.0022983819 488:0.057730496 489:-0.074174449 490:-0.0075013572 491:0.065654844 492:-0.061619151 493:0.01865516 494:-0.021659354 495:0.012621627 496:0.021227485 497:-0.003509992 498:0.054032121 499:0.06821993 500:-0.056190133 501:-0.012919741 502:-0.011503477 503:0.028500084 504:-0.0055034338 505:0.0094147027 506:-0.029804112 507:-0.012585908 508:-0.027136732 509:0.0062994147 510:-0.057882477 511:-0.02619244 512:-0.025373153 
0 2.1546953204171815 1.4121833728900097 0 1:-0.014802941 2:0.047980629 3:-0.025992975 4:-0.012554102 5:-0.022041516 6:-0.058736555 7:0.04459798 8:0.056737322 9:0.015781201 10:-0.02005041 11:0.0083597833 12:-0.10700305 13:-0.0082489382 14:-0.024284316 15:0.050134085 16:-0.025424041 17:-0.076087527 18:0.016666185 19:0.050824247 20:-0.018192939 21:-0.0021564642 22:0.048839215 23:-0.0039521083 24:0.015806919 25:0.042169709 26:0.041297864 27:-0.045033384 28:-0.081616856 29:0.047010299 30:-0.017478133 31:-0.05908414 32:0.080175124 33:-0.0075478535 34:0.015934365 35:0.03973224 36:0.052051596 37:0.0065829959 38:0.060087577 39:0.042799339 40:-0.022349605 41:-0.012252931 42:0.015776493 43:-0.010814094 44:0.026526954 45:-0.02651765 46:-0.033500329 47:-0.097066991 48:0.030744413 49:-0.057467997 50:0.024629854 51:-0.0033737419 52:-0.02954594 53:-0.024310619 54:0.024843333 55:-0.02492409 56:0.04518551 57:0.003197026 58:0.019891923 59:-0.032289248 60:-0.024607969 61:0.011904299 62:0.016005507 63:-0.020810777 64:-0.030080473 65:-0.012661225 66:-0.080190949 67:-0.10489377 68:0.026727816 69:-0.034139149 70:0.011257008 71:-0.050500836 72:0.01824549 73:-0.047694396 74:-0.065527953 75:0.10633159 76:-0.052597836 77:-0.046946008 78:0.063348345 79:-0.03567246 80:-0.067730851 81:0.037048049 82:0.012489033 83:-0.074590698 84:-0.072928496 85:-0.011960862 86:0.041412696 87:-0.0093208021 88:0.012869296 89:-0.0030984408 90:0.041721739 91:0.036734074 92:-0.015757371 93:-0.0011379111 94:-0.0089266263 95:0.036741976 96:-0.039758887 97:0.015787082 98:-0.051109876 99:-0.11166896 100:-0.013027406 101:-0.0053419056 102:-0.028721411 103:0.015288832 104:-0.0013829326 105:-0.0081575112 106:-0.072121091 107:0.0045571406 108:0.031452898 109:-0.013410778 110:0.0058228853 111:0.0042139054 112:0.031546097 113:0.061499424 114:-0.052671261 115:-0.01178578 116:-0.019673621 117:-0.021744555 118:0.059240267 119:-0.10778055 120:0.0088133933 121:-0.041097686 122:0.0085237855 123:0.041419555 124:0.041671064 125:-0.041506439 126:-0.0033837606 127:0.0260596 128:-0.02376608 129:0.012208741 130:0.028484168 131:0.0043269913 132:-0.026853671 133:0.045416057 134:-0.028770544 135:0.072316907 136:0.047482789 137:0.12162475 138:0.023895608 139:-0.060263742 140:0.034782872 141:-0.018581547 142:-0.019005172 143:-0.014521418 144:0.012994747 145:-0.027085472 146:0.02532634 147:0.049816076 148:0.055975143 149:-0.022684265 150:-0.048834879 151:0.030404417 152:-0.032397367 153:-0.04771493 154:-0.12027661 155:0.045177449 156:0.051283464 157:-0.077814333 158:0.12726247 159:0.07310804 160:0.021152806 161:-0.012637872 162:-0.023268325 163:-0.04298595 164:0.0053603915 165:-0.02260603 166:-0.034581337 167:-0.056806367 168:-0.0055707581 169:0.0050079837 170:0.043321107 171:0.025377195 172:-0.056769464 173:0.019823212 174:-0.0029458061 175:0.029979493 176:0.0087209372 177:-0.029452497 178:-0.016294841 179:-0.071033806 180:0.010587612 181:0.013360733 182:0.0097487476 183:0.027050136 184:-0.00012602592 185:0.020901669 186:-0.002221779 187:0.10822349 188:-0.019026855 189:-0.010646023 190:0.01826534 191:0.071215831 192:-0.0014483994 193:0.070049591 194:-0.0087850932 195:0.017702453 196:-0.041027743 197:-0.10629844 198:-0.00353311 199:-0.0099967094 200:-0.020775735 201:0.059989251 202:0.017185451 203:0.051330842 204:-0.0019000241 205:0.0062084589 206:0.027158573 207:0.032959986 208:-0.053049892 209:0.029204905 210:-0.0068701855 211:0.02311754 212:-0.078045025 213:-0.0033413435 214:-0.030254085 215:-0.0011615788 216:-0.02788314 217:0.076961085 218:-0.053430773 219:0.039845027 220:-0.0074119824 221:0.025248032 222:0.0083807046 223:-0.046208058 224:0.019199831 225:0.0089651179 226:-0.036384132 227:0.040801201 228:0.056473237 229:-0.071369961 230:0.0019314814 231:-0.06674587 232:0.052164149 233:-0.071710296 234:0.00095322682 235:-0.011525061 236:0.085015737 237:-0.0069501512 238:-0.0031054278 239:-0.0048211231 240:0.007804892 241:-0.13653743 242:-0.033814039 243:-0.073300771 244:0.052044492 245:0.014781646 246:0.056732934 247:0.0030876184 248:-0.024915835 249:0.028840557 250:0.071913943 251:0.0028670458 252:0.024950335 253:-0.04588766 254:-0.0090568103 255:-0.045528188 256:-0.0030230663 257:-0.063413143 258:0.0015780478 259:0.0014810553 260:-0.0067689824 261:-0.016425444 262:-0.04276564 263:0.00980529 264:0.06561026 265:-0.018580996 266:-0.030989245 267:-0.013695279 268:-0.02171725 269:-0.075442731 270:0.0055179237 271:0.0062353066 272:-0.020631855 273:-0.043036208 274:0.093145154 275:0.044862747 276:-0.0064688683 277:-0.03571457 278:-0.019205697 279:-0.037016183 280:0.037837032 281:-0.075965069 282:0.013180159 283:0.003963219 284:-0.086957425 285:-0.022745283 286:0.021623252 287:0.034252252 288:-0.024398174 289:-0.011064729 290:-0.012061222 291:0.018049464 292:-0.019556202 293:0.0037388958 294:0.053883404 295:-0.024336208 296:-0.064065218 297:0.027304783 298:-0.05632915 299:-0.04329228 300:0.028532982 301:-0.091743551 302:0.053276312 303:0.0025956936 304:0.04299897 305:0.016828896 306:-0.0018620619 307:-0.018392252 308:0.040919423 309:0.074627519 310:-0.014487962 311:-0.038395666 312:0.065460682 313:0.051059153 314:0.037446182 315:0.075074196 316:-0.015290912 317:0.081293374 318:-0.046309058 319:-0.010533303 320:-0.093231007 321:-0.06417226 322:0.0041622506 323:-0.064438976 324:0.013048108 325:-0.032963663 326:0.064034298 327:-0.013163782 328:0.028327584 329:-0.054700479 330:-0.02285872 331:-0.059685398 332:-0.014968288 333:-0.027897468 334:0.051175874 335:-0.028848074 336:0.0099199833 337:-0.019027792 338:0.012305725 339:0.016193686 340:-0.066682063 341:-0.0012856702 342:0.04621768 343:0.016872561 344:0.0040740436 345:0.028691575 346:-0.041692905 347:0.049848586 348:0.05607973 349:-0.054369453 350:0.01780398 351:-0.04039501 352:0.074513309 353:-0.029786259 354:0.027538905 355:-0.02711051 356:0.032486837 357:0.029910669 358:-0.06218943 359:0.049435217 360:-0.072449222 361:0.021063618 362:-0.014591171 363:0.024612138 364:0.030769294 365:-0.027735829 366:0.053825893 367:0.041442167 368:0.00086339127 369:0.014346945 370:-0.050635461 371:-0.029331284 372:-0.0069107297 373:0.0096286424 374:-0.01297322 375:-0.037644699 376:0.005065796 377:0.037723783 378:-0.043144424 379:-0.009896663 380:-0.030496677 381:0.062628672 382:-0.013639427 383:0.092098869 384:0.083451062 385:0.093922161 386:-0.054681368 387:-0.045044605 388:0.042761449 389:-0.021238055 390:-0.020182574 391:0.071269393 392:-0.037887637 393:0.037310917 394:-0.053010572 395:-0.031164005 396:-0.096030243 397:0.0073505896 398:0.043707665 399:-0.086101383 400:0.01279674 401:-0.030450623 402:-0.047109589 403:0.0031185001 404:0.016339703 405:-0.02101887 406:0.031674739 407:-0.029986151 408:0.010465437 409:0.086249061 410:0.023292247 411:0.028657781 412:0.085732356 413:-0.10722315 414:-0.067693859 415:-0.023672964 416:-0.020239621 417:-0.047673505 418:-0.051429339 419:-0.0043453439 420:-0.048796371 421:-0.015644444 422:-0.03309435 423:-0.015551426 424:-0.037272148 425:-0.021776473 426:-0.0073119504 427:0.082449004 428:-0.065557003 429:-0.023896627 430:0.022859752 431:0.023047714 432:-0.01472716 433:-0.034085222 434:-0.051864903 435:0.027150584 436:0.040360328 437:0.021265121 438:-0.090263456 439:-0.024622751 440:-0.036053464 441:0.0011481999 442:0.053599142 443:0.0047490252 444:-0.041402798 445:0.04439022 446:-0.094163179 447:-0.044739973 448:0.093549088 449:-0.0050913673 450:0.01137579 451:0.0097612236 452:-0.029548844 453:-0.046297606 454:-0.026250845 455:0.0052646729 456:-0.020183692 457:0.0061647361 458:0.065449081 459:0.068224713 460:0.021495076 461:0.033178221 462:0.10758587 463:0.027967511 464:0.014363009 465:0.0066552521 466:0.083562903 467:0.014963971 468:-0.0085986825 469:0.01347474 470:0.00042570484 471:-0.047147024 472:-0.059690848 473:-0.04051147 474:-0.089162543 475:0.0053167366 476:-0.02056705 477:-0.059989192 478:0.11199717 479:-0.02351366 480:-0.0626041 481:-0.00025412827 482:-0.045383863 483:0.036473893 484:0.06586542 485:0.0056032385 486:-0.022421034 487:0.015736341 488:0.02709746 489:-0.043116432 490:-0.019363983 491:0.046887837 492:-0.07132519 493:0.035910781 494:-0.063097224 495:0.020715686 496:0.031869333 497:-0.036717813 498:0.019864313 499:0.037881002 500:-0.098988749 501:-0.022868421 502:-0.041617021 503:0.069548339 504:-0.0012599707 505:0.011676912 506:-0.0099133281 507:-0.012228648 508:-0.0049348981 509:0.023439774 510:-0.068234064 511:-0.050133627 512:-0.036226809 
0.2181725481622192 0.35523959144248546 0.31720062366912322 0.038241079581926685 1:-0.014884986 2:0.02017271 3:-0.04323246 4:0.0047857724 5:0.025861444 6:-0.027430009 7:0.044131909 8:0.088267386 9:-0.037955277 10:-0.013651388 11:0.00090406212 12:-0.073758796 13:-0.0031898539 14:-0.022647457 15:0.042101033 16:-0.020033007 17:-0.07380385 18:0.031592283 19:0.024954587 20:-0.036087215 21:-0.031097831 22:0.092960179 23:-0.0073125632 24:-0.0025785062 25:0.031749144 26:0.043320883 27:-0.016744431 28:-0.079886466 29:0.052590936 30:-0.0076272185 31:-0.063587599 32:0.044795852 33:0.01739925 34:0.037131377 35:-0.0016188271 36:0.05878431 37:0.01751918 38:0.070025735 39:0.011347244 40:-0.00048392266 41:-0.009524337 42:0.03126115 43:0.050013773 44:0.026978182 45:-0.017628061 46:-0.0065602306 47:-0.067036673 48:0.057152715 49:-0.10452126 50:0.0054972107 51:-0.015132874 52:-0.020752395 53:0.013585548 54:0.019560762 55:0.0041828677 56:0.041148663 57:-0.0019201456 58:0.034479335 59:-0.0060739839 60:-0.081659257 61:0.015098536 62:0.007833668 63:-0.017322168 64:-0.079422683 65:-0.023478713 66:-0.072020307 67:-0.09335088 68:0.017335849 69:-0.018441981 70:0.03784056 71:-0.039865762 72:-0.011315956 73:-0.035202581 74:-0.072294563 75:0.10497587 76:-0.032951701 77:-0.012113063 78:0.047640361 79:-0.048753191 80:-0.092979871 81:0.048823051 82:0.068318173 83:-0.035826843 84:-0.079490386 85:-0.041310746 86:0.074256271 87:-0.016994001 88:-0.025019722 89:-0.023259085 90:-0.022145327 91:0.017347731 92:-0.023727333 93:-0.0063411528 94:-0.019397687 95:0.033651367 96:-0.04387809 97:0.010143783 98:-0.042817671 99:-0.091593713 100:-0.0044029765 101:-0.024102747 102:-0.014690046 103:0.029263167 104:-0.016751217 105:-0.040633224 106:-0.079310738 107:0.023096278 108:-0.0083366493 109:-0.01887488 110:-0.017416844 111:-0.027241642 112:0.043867622 113:0.036198657 114:-0.079239473 115:0.032492217 116:0.0067273332 117:0.0090962872 118:0.062850326 119:-0.086134791 120:-0.024629382 121:-0.059034981 122:0.015449111 123:0.056267034 124:0.0064296513 125:-0.058770098 126:-0.018128186 127:0.0235491 128:-0.021232139 129:0.051480554 130:0.019480919 131:0.041235391 132:-0.040784273 133:0.028979803 134:0.014654879 135:0.019749969 136:0.0091034984 137:0.11289753 138:0.022035444 139:-0.019739084 140:0.0076317703 141:-0.0086036185 142:-0.0077883108 143:-0.010087368 144:0.02812927 145:0.0047822096 146:0.037783388 147:0.070481524 148:0.0014453807 149:-0.019966116 150:-0.028267197 151:0.040755436 152:-0.0774884 153:-0.090729401 154:-0.077433407 155:0.040271256 156:0.013427122 157:-0.091571279 158:0.077025451 159:0.059498712 160:0.0074937586 161:-0.041756783 162:-0.0048050745 163:-0.040143199 164:0.015916344 165:-0.017131543 166:0.019549977 167:-0.10636079 168:-0.0081607914 169:-0.031635728 170:0.035037596 171:0.03810294 172:-0.05965025 173:0.014154001 174:0.049489565 175:0.056654841 176:0.040982388 177:0.0092991162 178:-0.00043205183 179:-0.075886667 180:0.04749174 181:0.028130271 182:-0.01344208 183:0.054563932 184:-0.0057424051 185:0.057647116 186:-0.018065678 187:0.12368973 188:-0.013742816 189:0.08069551 190:0.013826859 191:0.09219569 192:0.022090878 193:0.045068886 194:0.00064135855 195:0.036119077 196:-0.010253571 197:-0.087007612 198:0.021778245 199:-0.048014056 200:0.00081862981 201:0.041264597 202:-0.007000898 203:0.076838978 204:-0.033157151 205:0.0011927894 206:0.045639783 207:0.056415655 208:-0.018005135 209:0.026192455 210:-0.025663529 211:0.048988473 212:-0.074281245 213:0.013277643 214:0.01413808 215:-0.0063947625 216:-0.0068286932 217:0.063193537 218:-0.082317792 219:-0.014478287 220:-0.024285791 221:-0.027398175 222:-0.03410558 223:-0.039473735 224:0.025563173 225:-0.0059023611 226:-0.035566419 227:0.026319798 228:0.043647267 229:-0.018259823 230:-0.025780732 231:-0.085968286 232:0.086521156 233:-0.049835566 234:-0.0013014689 235:-0.039663848 236:0.034282286 237:0.0093363067 238:-0.0072217314 239:0.020764893 240:-0.0016816879 241:-0.11563871 242:-0.054231256 243:-0.07640028 244:0.040601414 245:0.0038913812 246:0.051563557 247:0.0048824628 248:-0.060890809 249:-0.014127673 250:0.097331442 251:0.024586249 252:0.060402188 253:-0.064214259 254:-0.030296532 255:-0.022160761 256:-0.004545067 257:-0.065155759 258:0.0053318013 259:-0.0015447621 260:-0.03783277 261:-0.026380686 262:-0.039488588 263:0.0027736647 264:0.042879097 265:-0.084178604 266:-0.025064575 267:0.027127881 268:-0.032081824 269:-0.065580934 270:-0.017704973 271:0.01735232 272:0.013599754 273:-0.061914559 274:0.034866102 275:0.024957703 276:-0.022295592 277:0.0001617051 278:0.0060915886 279:0.024187876 280:0.081351608 281:-0.01177485 282:-0.0055583362 283:-0.023511011 284:-0.11667491 285:-0.0030006727 286:0.030685054 287:0.042746045 288:-0.028064189 289:0.012781977 290:-0.0026667546 291:0.012942102 292:-0.021365114 293:-0.0044302447 294:0.095268309 295:0.0031465385 296:-0.061479915 297:-0.015428321 298:-0.039162345 299:-0.016134271 300:0.018642941 301:-0.050407395 302:0.049315952 303:0.012766036 304:0.05095008 305:0.027789071 306:-0.00060550735 307:-0.018970542 308:0.039302614 309:0.019277558 310:0.033433739 311:-0.019658569 312:0.091753557 313:0.052382927 314:0.076020062 315:0.056705464 316:0.039087087 317:0.079517223 318:-0.032969084 319:0.01220763 320:-0.046668287 321:-0.010658112 322:0.018894056 323:-0.040907741 324:0.012045047 325:-0.052528858 326:0.074536346 327:-0.030193064 328:0.0037364988 329:-0.054465018 330:-0.046955362 331:-0.044169471 332:-0.02927158 333:0.010137361 334:0.031541031 335:-0.044269864 336:0.010247886 337:-0.004985271 338:0.0016168291 339:0.0075409547 340:-0.065566018 341:-0.016397037 342:0.084576927 343:-0.0058294642 344:0.018165311 345:0.013470389 346:-0.031266276 347:0.0018748526 348:0.052121639 349:-0.0094395084 350:-0.018350244 351:-0.038452938 352:0.070812441 353:-0.017430073 354:0.0090155108 355:-0.023753986 356:0.022397844 357:0.0069044475 358:-0.070523582 359:0.026523687 360:-0.02954663 361:0.01637906 362:-0.038003158 363:0.04018876 364:0.060295481 365:-0.01997358 366:0.068251736 367:0.025827184 368:0.017668758 369:0.044350397 370:-0.049640432 371:-0.0096917553 372:-0.027514698 373:-0.011760404 374:-0.067187414 375:-0.07564991 376:0.034510441 377:-0.0052308659 378:-0.044367306 379:0.028883839 380:-0.064420328 381:0.04937854 382:-0.046020508 383:0.073646687 384:0.054642364 385:0.08530768 386:-0.027407862 387:-0.016315056 388:-0.01718686 389:0.0018550711 390:-0.042730849 391:0.05723897 392:-0.017305888 393:0.070824765 394:-0.04563823 395:-0.04616227 396:-0.034217663 397:0.04039786 398:0.069857582 399:-0.030592075 400:0.021360971 401:-0.026398716 402:-0.0057117105 403:0.0083830375 404:0.02529739 405:0.019816829 406:0.04225352 407:-0.076171108 408:-0.016798776 409:0.08045435 410:0.056259077 411:0.029553315 412:0.047703788 413:-0.064260133 414:-0.076874368 415:0.0032335008 416:-0.0019856065 417:-0.0090250922 418:-0.058919884 419:0.024751132 420:-0.042523921 421:-0.031908292 422:-0.045527507 423:0.0064454251 424:-0.053384289 425:-0.072728202 426:-0.029166093 427:0.077534087 428:-0.016221881 429:-0.013454384 430:0.032715809 431:0.027890131 432:0.022396594 433:-0.096990831 434:-0.048437811 435:0.044067707 436:0.040533058 437:0.0042032017 438:-0.094276108 439:0.01699692 440:-0.011419803 441:-0.018192597 442:0.016824428 443:-0.032010294 444:-0.016894372 445:0.051952928 446:-0.088911168 447:-0.06841512 448:0.088026039 449:-0.014112732 450:-0.025254486 451:0.011873834 452:0.0036505673 453:-0.089671358 454:-0.053062901 455:0.037972134 456:-0.013232545 457:0.0044814637 458:0.0073081879 459:0.039210763 460:0.022433514 461:0.037718147 462:0.12076731 463:0.048251681 464:0.041513138 465:7.2985953e-05 466:0.043036934 467:0.032500409 468:0.015766487 469:-0.015268278 470:0.032662153 471:-0.051623657 472:-0.032990098 473:-0.035959523 474:-0.061090995 475:-0.027824752 476:-0.035533797 477:-0.029562347 478:0.11337437 479:-0.036705382 480:-0.035513662 481:-0.029523298 482:-0.055464566 483:0.015110591 484:0.019390287 485:0.018135831 486:-0.017796177 487:-0.0059927884 488:0.041677527 489:-0.065904275 490:0.026466317 491:0.055362012 492:-0.08407037 493:0.046996396 494:-0.063103102 495:-0.014757138 496:-0.012588529 497:0.022044376 498:0.048711713 499:0.058371354 500:-0.052086581 501:-0.0083148759 502:-0.024076628 503:0.056617778 504:-0.023523798 505:-0.027123721 506:0.015170584 507:0.012687691 508:-0.0053583398 509:0.012062028 510:-0.034506869 511:-0.044082105 512:-0.036621071 
0.65298222923040883 0 0 0.63192372056764146 1:-0.01961272 2:0.029793583 3:-0.062491603 4:0.014784023 5:0.002074529 6:-0.052549694 7:0.043534666 8:0.087461054 9:-0.026681606 10:-0.0025625273 11:-0.011085059 12:-0.10358364 13:-0.0049664048 14:-0.055454433 15:0.033727191 16:-0.029035868 17:-0.074378572 18:0.017187368 19:0.053789347 20:-0.0040485254 21:-0.021263253 22:0.08187373 23:-0.039397575 24:-0.0084888367 25:0.041636113 26:0.032568764 27:-0.0052166409 28:-0.068947345 29:0.050829452 30:-0.013321918 31:-0.067640379 32:0.05883947 33:-0.025143759 34:0.046260167 35:0.014089649 36:0.032492276 37:0.0021445837 38:0.051598873 39:0.017722039 40:-0.035647757 41:-0.0088372519 42:0.04655439 43:0.049646344 44:-0.0022573944 45:-0.026388846 46:-0.0096092457 47:-0.077118814 48:0.034838285 49:-0.083125897 50:0.0081115542 51:0.00542252 52:-0.02252074 53:0.04018753 54:0.023949191 55:-0.012425859 56:0.015555215 57:-0.023340773 58:0.062378675 59:-0.019740086 60:-0.034774665 61:0.024099702 62:-0.0039622933 63:0.011788986 64:-0.040096939 65:-0.034899659 66:-0.084523663 67:-0.081169471 68:0.035645403 69:-0.031547535 70:0.02604552 71:-0.06555897 72:-0.02458393 73:-0.034762204 74:-0.04982128 75:0.10546689 76:-0.052985739 77:-0.034985166 78:0.048512746 79:-0.012954012 80:-0.10398021 81:0.056636099 82:0.068070866 83:-0.052802242 84:-0.083528139 85:-0.062945887 86:0.068882696 87:-0.0087523097 88:-0.038413893 89:0.00099828606 90:0.013277824 91:0.03116958 92:0.0092954282 93:-0.016320594 94:-0.018422272 95:0.020230165 96:-0.00029791004 97:0.052356347 98:-0.042804278 99:-0.11102665 100:-0.029592754 101:-0.037117749 102:-0.038460895 103:0.01829358 104:-0.024413776 105:-0.052730847 106:-0.098355502 107:0.021114027 108:0.021150876 109:-0.012413107 110:0.0052360464 111:0.0071574994 112:0.026453745 113:0.059861362 114:-0.056552827 115:0.039936908 116:0.014392762 117:-0.01291625 118:0.078933984 119:-0.096664116 120:0.0096300254 121:-0.059398774 122:0.020341706 123:0.080584265 124:4.8438706e-05 125:-0.032094169 126:0.0021662421 127:0.035645049 128:-0.010925599 129:0.004874967 130:0.032413658 131:0.012406345 132:-0.032754794 133:0.043289836 134:-0.011930602 135:0.044032905 136:0.029900296 137:0.11347001 138:0.046056721 139:-0.039422125 140:0.034679472 141:-0.024381123 142:-0.030882537 143:0.00040688633 144:0.028870713 145:-0.021573819 146:0.031796321 147:0.057502501 148:0.048833791 149:-0.007068621 150:-0.034120325 151:0.038176101 152:-0.027880332 153:-0.073892266 154:-0.09585882 155:0.035942681 156:0.024877144 157:-0.074299172 158:0.073374614 159:0.052442029 160:0.037929285 161:-0.01324396 162:-0.0098642344 163:-0.0077801701 164:-0.015809724 165:-0.032640234 166:0.003692758 167:-0.10829941 168:-0.012817813 169:-0.0088582588 170:0.058875732 171:0.046791017 172:-0.047790933 173:0.051511504 174:0.031039258 175:0.034358699 176:0.032874253 177:-0.0012880916 178:0.00061514089 179:-0.0609615 180:0.01302181 181:-0.0076939445 182:0.022323845 183:0.052765973 184:-0.016688518 185:0.020564338 186:0.014331909 187:0.11904384 188:-0.028779862 189:0.055398334 190:0.021795249 191:0.091446392 192:0.0029734708 193:0.056589503 194:-0.0015541282 195:0.037274141 196:-0.022360194 197:-0.084984951 198:0.0035451751 199:-0.037310246 200:-0.033254638 201:0.041726965 202:-0.020059345 203:0.049701832 204:-0.0044140415 205:0.0060066651 206:0.029743439 207:0.058667 208:-0.024666842 209:0.0074260831 210:-0.021303544 211:0.039672013 212:-0.050470933 213:0.0061104139 214:-0.0037200067 215:0.015781501 216:0.0074303546 217:0.077845134 218:-0.045438632 219:0.00096543843 220:-0.028552927 221:0.004925217 222:-0.0098345242 223:-0.056390721 224:0.019878877 225:0.031149883 226:-0.01613822 227:0.051923268 228:0.059310481 229:-0.018641068 230:-0.0063510179 231:-0.042722117 232:0.071623772 233:-0.030949913 234:0.0048363898 235:-0.051169075 236:0.074966207 237:-0.02213986 238:-0.025264766 239:0.0055687982 240:-0.011833727 241:-0.12809348 242:-0.0447983 243:-0.11362299 244:0.039869428 245:0.026920784 246:0.052382622 247:0.0078157922 248:-0.062223732 249:0.028911559 250:0.07215713 251:-0.023547083 252:0.043222263 253:-0.050032232 254:-0.016765647 255:-0.024407282 256:-0.0096257776 257:-0.068010636 258:-0.02380209 259:-0.0090758502 260:-0.037992489 261:-0.033594396 262:-0.045279305 263:-0.0049727424 264:0.023421077 265:-0.054125249 266:-0.03149011 267:-0.0010029363 268:-0.01508359 269:-0.055088386 270:-0.0075500878 271:0.016898744 272:0.02023452 273:-0.051104039 274:0.067028053 275:0.028873874 276:-0.0087799253 277:-0.011815871 278:0.0051953844 279:0.012236503 280:0.08454638 281:-0.052903153 282:0.014327852 283:0.014994233 284:-0.10432391 285:-0.026889797 286:0.042303383 287:0.050902002 288:-0.016332855 289:-0.024595451 290:0.0074652429 291:0.018424917 292:-0.004500825 293:-0.0080515156 294:0.093303181 295:-0.013490719 296:-0.055223089 297:0.021363795 298:-0.030388096 299:-0.040936545 300:0.027004072 301:-0.049059011 302:0.048530139 303:0.003722725 304:0.068231858 305:0.030316478 306:0.017944502 307:-0.0268583 308:0.030034618 309:0.041083738 310:0.015121616 311:-0.026704639 312:0.086568102 313:0.035752561 314:0.061568808 315:0.068356462 316:-0.0097051375 317:0.082972534 318:-0.06209648 319:0.028852863 320:-0.067580618 321:-0.017729333 322:0.019188853 323:-0.047137819 324:0.012051679 325:-0.023841258 326:0.047485214 327:-0.0075558606 328:-0.013803807 329:-0.078951888 330:-0.033468939 331:-0.055309359 332:-0.0074692089 333:0.0065908143 334:0.022946296 335:-0.032633569 336:0.0077677122 337:-0.003828384 338:0.0027520552 339:0.025408158 340:-0.069693357 341:0.021117263 342:0.068399422 343:0.012736517 344:-0.010645626 345:0.017567554 346:-0.054817893 347:0.017331235 348:0.045347475 349:-0.019399205 350:0.0094613126 351:-0.052291654 352:0.066479519 353:-0.038250223 354:0.032276709 355:-0.044409826 356:0.017038327 357:0.032811698 358:-0.056260217 359:0.041245878 360:-0.043476187 361:0.061830621 362:-0.042632397 363:0.030625548 364:0.049594171 365:-0.022812959 366:0.04960414 367:0.0116351 368:-0.010679055 369:0.030144706 370:-0.056736153 371:-0.0075033996 372:0.01791819 373:-0.02222692 374:-0.041534506 375:-0.066014044 376:0.032047074 377:0.00074831926 378:-0.045735694 379:0.025836777 380:-0.04167534 381:0.053752791 382:-0.0072973086 383:0.11472942 384:0.035666917 385:0.095616758 386:-0.044168346 387:-0.026521644 388:0.01640331 389:0.00089064456 390:-0.022441881 391:0.061032459 392:-0.0129056 393:0.058860414 394:-0.057658248 395:-0.034843519 396:-0.052457381 397:0.0057132142 398:0.073682725 399:-0.029824892 400:0.03077963 401:-0.025118968 402:-0.045950349 403:-0.0022407554 404:0.02822843 405:0.00058460218 406:0.027152132 407:-0.045611493 408:0.041656043 409:0.094299935 410:0.027026508 411:0.049608726 412:0.073822618 413:-0.083574392 414:-0.07384596 415:-0.031502072 416:-0.025238696 417:-0.049777132 418:-0.041167978 419:-0.0030804072 420:-0.029709617 421:-0.030182224 422:-0.039492674 423:0.030076362 424:-0.030228835 425:-0.050344702 426:-0.0252888 427:0.085190572 428:-0.037606008 429:-0.02838528 430:0.01694008 431:0.026972719 432:-0.013822733 433:-0.030687446 434:-0.049459752 435:0.056430046 436:0.03567329 437:0.00055540702 438:-0.11458621 439:0.0040247259 440:-0.020881716 441:-0.024709987 442:0.019334475 443:0.00023232141 444:-0.0057518343 445:0.042785514 446:-0.073029973 447:-0.061680112 448:0.11295082 449:0.026784636 450:-0.037313838 451:0.010034337 452:-0.041333377 453:-0.071631543 454:-0.055638917 455:0.018193983 456:-0.0012973641 457:0.010160197 458:-0.0024012334 459:0.038267735 460:0.0080889203 461:0.046607878 462:0.10741951 463:0.036595915 464:0.036795981 465:-0.0054157497 466:0.076346524 467:0.060111489 468:-0.0052406816 469:-0.028464595 470:0.032478455 471:-0.041718125 472:-0.053293422 473:-0.054790244 474:-0.042039465 475:0.0045699487 476:0.025838727 477:-0.052244458 478:0.11857954 479:-0.020028768 480:-0.046931971 481:-0.024897147 482:-0.060933094 483:0.037812371 484:0.04002922 485:0.0058609615 486:-0.06220074 487:-0.016104745 488:0.040001467 489:-0.063879423 490:0.022582034 491:0.036066309 492:-0.05668354 493:0.035115298 494:-0.04963363 495:0.0029748324 496:0.019082548 497:0.018736899 498:0.036079638 499:0.066756487 500:-0.052651931 501:0.0020838457 502:-0.031337336 503:0.049058244 504:-0.010914542 505:-0.0057886154 506:-0.015664956 507:-0.022081986 508:-0.043509524 509:0.021249363 510:-0.044113226 511:-0.039336637 512:-0.017593587 
0.98166845555002091 0 0.12068531769938434 0.71942854473867113 1:-0.030011697 2:0.033171486 3:-0.039006837 4:-0.0067045237 5:-0.025204811 6:-0.048805866 7:0.033440143 8:0.048195992 9:0.01881415 10:-0.0089385808 11:0.011743445 12:-0.097824931 13:-0.017973373 14:-0.032478563 15:0.049902044 16:-0.017200928 17:-0.080572598 18:0.0042548859 19:0.053921163 20:-0.029793035 21:-0.021329869 22:0.071547538 23:-0.018308565 24:0.0097150952 25:0.029077144 26:0.046215244 27:-0.066223532 28:-0.075449273 29:0.056252547 30:-0.019501103 31:-0.058389466 32:0.067418739 33:0.014991174 34:0.013812889 35:0.035200246 36:0.075141832 37:0.023245711 38:0.050268251 39:0.070151776 40:-0.016550671 41:0.0089211874 42:0.0096558286 43:0.019205198 44:0.0040079984 45:-0.028209792 46:-0.025998587 47:-0.11297403 48:0.0072472291 49:-0.047926333 50:0.02172753 51:0.019832402 52:-0.0082608238 53:-0.034530602 54:0.0064082998 55:-0.051203623 56:0.026268326 57:0.0050694495 58:0.0087514333 59:-0.039663732 60:-0.031611018 61:0.013383429 62:0.035393603 63:-0.036796607 64:-0.030692928 65:-0.035395291 66:-0.073543824 67:-0.090692066 68:0.031991072 69:-0.044895377 70:0.027695742 71:-0.033265952 72:0.019637376 73:-0.038256045 74:-0.063311093 75:0.098719351 76:-0.063914694 77:-0.057853449 78:0.075502016 79:-0.059468623 80:-0.064445361 81:0.038882654 82:0.012174835 83:-0.093086623 84:-0.061606944 85:0.016609611 86:0.035170283 87:-0.0014406574 88:0.018838285 89:-0.027092455 90:0.04898148 91:0.0584516 92:-0.034024704 93:0.0046948479 94:-0.0072307065 95:0.046114769 96:-0.02448226 97:0.046407696 98:-0.043498289 99:-0.11192822 100:-0.0083891619 101:-0.0020533034 102:-0.022755472 103:0.031260278 104:-0.0040429523 105:-0.019212954 106:-0.1016361 107:0.01287351 108:0.03544103 109:0.0080638994 110:0.019009687 111:0.025241746 112:0.025231095 113:0.059375659 114:-0.054736536 115:-0.0069020381 116:-0.035397682 117:-0.021630267 118:0.04101529 119:-0.07936433 120:0.029290471 121:-0.044513039 122:0.00075112248 123:0.0097444346 124:0.04169878 125:-0.043933358 126:-0.01078438 127:0.030654101 128:0.0021199938 129:0.0017069776 130:0.034886047 131:0.0061919913 132:-0.027735053 133:0.044600397 134:-0.020983458 135:0.048684034 136:0.052709095 137:0.12366045 138:0.028511837 139:-0.046752293 140:0.060941707 141:-0.025940433 142:-0.023843091 143:0.008032918 144:0.031502187 145:-0.023167349 146:-0.012301106 147:0.03312752 148:0.057149585 149:-0.016332984 150:-0.065175965 151:0.043758556 152:-0.017917655 153:-0.028019274 154:-0.12877813 155:0.070985243 156:0.054881271 157:-0.056582071 158:0.13016395 159:0.088242628 160:0.027238112 161:-0.0055549247 162:-0.034760188 163:-0.041539412 164:0.0028245058 165:-0.0098724011 166:-0.036155749 167:-0.043195348 168:-0.020543959 169:0.015233616 170:0.053697471 171:0.012925982 172:-0.042893667 173:0.014569418 174:-0.0053461664 175:0.041349996 176:0.0047616344 177:-0.011622363 178:-0.026453661 179:-0.054162461 180:-0.0030315134 181:-0.013956708 182:-0.0097808763 183:0.0023795338 184:0.0038242708 185:-0.0044110813 186:0.011308106 187:0.10179494 188:-0.01343325 189:-0.017009523 190:0.039183486 191:0.073585473 192:-0.016558701 193:0.061279319 194:-0.010237241 195:0.026785124 196:-0.059710436 197:-0.091996945 198:0.015153216 199:-0.0087184971 200:-0.0065319915 201:0.038308583 202:0.017509595 203:0.037789553 204:-0.017298706 205:-0.0074209375 206:0.036209326 207:0.039165098 208:-0.0581172 209:0.025092734 210:0.0022596554 211:0.0049569453 212:-0.077498488 213:0.0094098262 214:-0.040603526 215:0.016473815 216:-0.036455266 217:0.054992985 218:-0.051049635 219:0.048800204 220:-0.018946461 221:0.043564294 222:-0.012403829 223:-0.050764769 224:0.010126784 225:0.0033763794 226:-0.069436401 227:0.03955156 228:0.02126848 229:-0.05724404 230:0.01057365 231:-0.038126223 232:0.056692764 233:-0.065501012 234:0.016988374 235:-0.016569234 236:0.05895827 237:0.016686037 238:-0.010974317 239:-0.022582829 240:0.0082181143 241:-0.12350259 242:-0.034073628 243:-0.061322615 244:0.050270241 245:0.0028421595 246:0.049237229 247:0.020012969 248:0.0065307398 249:0.01028676 250:0.073428132 251:-0.004940494 252:0.0015378324 253:-0.041464906 254:-0.013702356 255:-0.037633847 256:0.0018643321 257:-0.051051386 258:-0.036322907 259:0.033887029 260:-0.0014805872 261:-0.03559095 262:-0.028236605 263:0.0013471644 264:0.041127268 265:0.0096140625 266:-0.016229223 267:-0.021832438 268:-0.014198679 269:-0.082824633 270:-0.0060785823 271:0.007413676 272:-0.0098380782 273:-0.043317143 274:0.099221654 275:0.062214348 276:-0.017857468 277:-0.038246103 278:-0.011707623 279:-0.044236049 280:0.035647448 281:-0.073312074 282:0.019425143 283:0.040972166 284:-0.088432118 285:-0.03063634 286:-0.0047131665 287:0.021230524 288:0.00023392715 289:0.0086332392 290:-0.010855611 291:0.028330078 292:-0.02505275 293:-0.010420851 294:0.048084069 295:-0.03918298 296:-0.067500569 297:0.033985134 298:-0.04165224 299:-0.04757493 300:0.041673046 301:-0.096499279 302:0.048089903 303:-0.0035157541 304:0.039058939 305:0.011943663 306:-0.014197163 307:-0.024618357 308:0.038520403 309:0.096142925 310:-0.030812573 311:-0.019104477 312:0.067666531 313:0.036351122 314:0.019454183 315:0.077005982 316:-0.036866885 317:0.095027104 318:-0.054745976 319:-0.0096962722 320:-0.091325313 321:-0.047985479 322:0.01032039 323:-0.067860149 324:0.0069748457 325:-0.043421388 326:0.064234741 327:-0.017584763 328:0.021949356 329:-0.040534869 330:-0.020791925 331:-0.064277023 332:-0.027101725 333:-0.027102392 334:0.063464716 335:-0.029181855 336:0.014555639 337:-0.036960542 338:0.0058887172 339:0.019005705 340:-0.064742386 341:0.015951473 342:0.0358507 343:0.029885989 344:-0.00057725911 345:0.031490583 346:-0.061563138 347:0.051544771 348:0.0051039737 349:-0.039529271 350:0.016208826 351:-0.056273613 352:0.064522065 353:-0.047666296 354:0.058579996 355:-0.002105251 356:0.0015449171 357:0.024320461 358:-0.050749637 359:0.045825437 360:-0.079134353 361:0.022317953 362:-0.013088893 363:0.018527519 364:0.022610078 365:-0.025776004 366:0.043808922 367:0.046921708 368:0.011029221 369:-0.0069650034 370:-0.066673115 371:-0.013191691 372:-0.030017344 373:-0.0146482 374:-0.0041535231 375:-0.027310222 376:-0.011553572 377:0.034678839 378:-0.023448395 379:-0.0044459333 380:-0.019260181 381:0.063689612 382:-0.0086433589 383:0.07617715 384:0.099539749 385:0.099122778 386:-0.059485957 387:-0.061439421 388:0.047647782 389:-0.007848464 390:-0.013204341 391:0.087341636 392:-0.026488308 393:0.049454503 394:-0.059026152 395:-0.041404374 396:-0.095817074 397:0.0046458356 398:0.037279584 399:-0.088690646 400:0.029851042 401:-0.01422117 402:-0.066850506 403:-0.010815865 404:0.021694997 405:-0.020769389 406:0.035593249 407:-0.018382227 408:0.021253394 409:0.076043464 410:-0.016808622 411:0.040904265 412:0.070053786 413:-0.076706052 414:-0.064045213 415:-0.015596542 416:-0.027878862 417:-0.045764159 418:-0.035890419 419:-0.022430817 420:-0.049719121 421:-0.013559041 422:-0.036464497 423:-0.0074893851 424:-0.058436688 425:-0.034952328 426:0.0082232663 427:0.089560032 428:-0.054655541 429:-0.03110577 430:0.025503848 431:0.03824712 432:0.0055916179 433:-0.034652904 434:-0.035790186 435:0.03591815 436:0.037130218 437:0.030142864 438:-0.08255256 439:-0.053073708 440:-0.03398744 441:0.017594099 442:0.073163837 443:0.0068874173 444:-0.038056701 445:0.018989738 446:-0.10590275 447:-0.050382551 448:0.094602078 449:0.01172723 450:0.0018104498 451:-0.0055329632 452:-0.033541091 453:-0.042590633 454:-0.012543057 455:0.0019806644 456:-0.016025322 457:0.011338789 458:0.057926286 459:0.054041807 460:0.027416559 461:0.027036093 462:0.086722314 463:0.034987129 464:0.0063617988 465:0.013269367 466:0.075639725 467:0.025655964 468:-0.013103008 469:-0.00497165 470:0.0027162805 471:-0.03309989 472:-0.059997868 473:-0.042219277 474:-0.097514391 475:0.011338357 476:-0.013864292 477:-0.049287092 478:0.081847899 479:0.0050039748 480:-0.04514429 481:-0.0048224698 482:-0.042888392 483:0.033567015 484:0.060582928 485:0.0028467681 486:-0.027672125 487:0.0082669025 488:0.034809832 489:-0.057736732 490:-0.026440945 491:0.069841363 492:-0.053418737 493:0.050966356 494:-0.057210192 495:0.032910354 496:0.046122015 497:-0.039268363 498:0.0065571731 499:0.042360522 500:-0.098035261 501:-0.022367939 502:-0.011599364 503:0.066351734 504:0.013127706 505:0.016660595 506:-0.0065316949 507:-0.011751226 508:-0.030536352 509:0.025992345 510:-0.074669972 511:-0.039219242 512:-0.012434786 
-1.142777552703071 0.73032185689187323 0.50686477551033216 0.225292485437186 1:0.010062358 2:-0.0093871132 3:-0.043841906 4:-0.059349712 5:-0.027161434 6:-0.095951982 7:0.055410571 8:-0.0033315567 9:0.009474488 10:-0.01109822 11:-0.029545868 12:-0.0356909 13:-0.032803264 14:-0.071176551 15:-0.0044133556 16:0.058441199 17:-0.039578516 18:-0.034709096 19:-0.015582088 20:-0.038683075 21:-0.081667401 22:-0.0072369571 23:-0.040496532 24:-0.013025209 25:-0.0028109464 26:0.041746724 27:-0.043992851 28:-0.15355983 29:0.039469786 30:-0.029807722 31:-0.067312464 32:0.056132488 33:0.0076093543 34:0.099949248 35:-0.032597817 36:0.020604979 37:0.03455171 38:-0.042628128 39:-0.047184907 40:0.022303574 41:-0.00160338 42:-0.10755523 43:-0.0085584288 44:0.030115699 45:-0.018901421 46:0.0094766561 47:-0.071544252 48:0.033806887 49:-0.0019605688 50:0.06912674 51:0.058549099 52:0.030226722 53:-0.041248668 54:0.026640035 55:-0.0067883027 56:-0.031290777 57:-0.028851397 58:-0.011583305 59:-0.028697159 60:0.050056607 61:-0.020404238 62:0.029520333 63:0.010097667 64:0.031454623 65:-0.021154357 66:-0.043284722 67:-0.089439169 68:0.083096482 69:-0.013074952 70:-0.035440724 71:-0.023766465 72:-0.021549974 73:0.042760476 74:0.037283383 75:0.018773882 76:-0.011416933 77:-0.031256881 78:-0.010116586 79:-0.041127928 80:-0.024625771 81:0.010324369 82:-0.018071745 83:-0.02618785 84:-0.044559892 85:-0.032336108 86:-0.014384619 87:-0.012285502 88:-0.018778125 89:0.078179844 90:0.014176507 91:0.068813697 92:0.014098893 93:0.014419314 94:0.0014204051 95:-0.032516446 96:0.023255365 97:-0.011376311 98:0.014993869 99:-0.12353211 100:-0.023399487 101:0.014292454 102:-0.054411173 103:0.010300151 104:0.0071074665 105:-0.07415957 106:-0.084097289 107:0.08123377 108:-0.032651141 109:-0.04086731 110:-0.068131529 111:0.011263649 112:-0.047300652 113:0.019979889 114:0.036242198 115:0.011545757 116:-0.015706718 117:-0.01979411 118:-0.048937183 119:-0.028348023 120:0.032846447 121:0.035238884 122:0.038276486 123:0.016313337 124:-0.016949926 125:-0.046956271 126:-0.050299782 127:-0.023796063 128:-0.024535457 129:0.054494057 130:0.037541799 131:-0.035222877 132:-0.056659717 133:-0.013807915 134:0.017921688 135:-0.066348597 136:-0.050672028 137:-0.00066201808 138:-0.058161501 139:-0.02606493 140:0.054612633 141:0.036058351 142:0.026270535 143:-0.042598221 144:0.0085529638 145:0.022118287 146:-0.031337097 147:0.055682987 148:0.01794369 149:-0.00090811244 150:0.0017228803 151:0.046690114 152:0.028584857 153:-0.027395694 154:-0.031740319 155:0.013668619 156:-0.0026012561 157:-0.095277026 158:0.042359762 159:0.04520417 160:0.016539214 161:0.040093817 162:-0.050082132 163:-0.051323239 164:-0.01363383 165:0.011630374 166:0.0063480833 167:-0.029810144 168:0.08557006 169:-0.015887197 170:0.021347109 171:0.039721381 172:0.00042323716 173:-0.012259016 174:0.039415002 175:0.037043478 176:0.0027592401 177:-0.022605119 178:-0.0031302255 179:-0.022094324 180:-0.0072221304 181:-0.0054549971 182:0.035970602 183:0.0036105872 184:-0.026830193 185:-0.0099363504 186:-0.035825837 187:0.05052422 188:-0.057777449 189:-0.019839404 190:0.051001344 191:0.058416717 192:0.011025175 193:0.033297699 194:-0.032665152 195:-0.043660317 196:-0.089260057 197:0.0035985587 198:0.03501169 199:-0.022565039 200:-0.049142383 201:0.031932265 202:-0.025457919 203:0.032667067 204:0.052990496 205:0.026027333 206:-0.050325602 207:0.13014548 208:0.0014682331 209:-0.026567599 210:0.058662292 211:0.018506581 212:-0.045918997 213:0.015492797 214:0.050477594 215:0.047491644 216:-0.052268337 217:0.013206567 218:0.00010308369 219:0.022770358 220:0.067575611 221:-0.037057634 222:-0.04380206 223:-0.012310357 224:-0.075103618 225:0.0081666745 226:-0.023242511 227:0.020387277 228:0.039667021 229:-0.046955869 230:0.052985962 231:0.009934104 232:-0.0066232961 233:-0.060737349 234:-0.005055903 235:-0.033139091 236:0.014736624 237:-0.02114311 238:0.030290829 239:-0.0055552674 240:-0.05073107 241:0.0079963002 242:-0.032499146 243:-0.015847601 244:0.046166655 245:0.033632405 246:0.068933383 247:0.074475795 248:0.011014071 249:0.053696129 250:-0.027961846 251:-0.010586901 252:0.024985597 253:0.03910809 254:-0.011326033 255:-0.11209916 256:-0.037727196 257:-0.035135001 258:-0.022206713 259:-0.012071036 260:0.058350205 261:0.032886103 262:0.0075378469 263:-0.066602156 264:-0.042038981 265:-0.0039338185 266:-0.0095171751 267:-0.01355881 268:-0.037965596 269:-0.09734486 270:-0.063269973 271:0.03853038 272:-0.010152385 273:-0.0028304551 274:0.04235008 275:0.05777115 276:0.0048643425 277:-0.001177539 278:0.012552895 279:0.015879882 280:0.09079738 281:-0.091773652 282:0.012966652 283:-0.029140612 284:-0.056562718 285:-0.086226441 286:-0.052296955 287:-0.06255345 288:0.023375796 289:0.02649886 290:0.031321 291:-0.079610303 292:0.03412009 293:0.012711398 294:-0.0031185553 295:0.05078911 296:-0.029054057 297:-0.013330419 298:-0.054060638 299:-0.020959506 300:0.084502399 301:-0.048035737 302:-0.062964007 303:0.044322219 304:0.06731946 305:0.014273205 306:-0.023448747 307:0.01002462 308:-0.018074859 309:0.069210723 310:-0.00065041054 311:-0.028429061 312:0.064829618 313:0.030947864 314:-0.010312313 315:0.063430578 316:-0.043032438 317:0.018794669 318:-0.019319111 319:0.060150567 320:-0.068375207 321:0.028170053 322:0.0064355205 323:-0.039846599 324:0.027804773 325:-0.041696794 326:0.013862924 327:-0.028583281 328:0.043506831 329:-0.12219532 330:0.016752625 331:0.031897862 332:0.0080496157 333:-0.026471782 334:0.063813381 335:-0.022055821 336:0.023765706 337:-0.0066481354 338:-0.017541792 339:0.04739574 340:-0.020504689 341:-0.029141739 342:0.012687773 343:0.048695646 344:-0.1102996 345:0.058644895 346:-0.078649603 347:-0.0043896688 348:0.0027757692 349:0.008679064 350:0.019490682 351:-0.052798878 352:0.0054142941 353:-0.020495024 354:0.01943166 355:-0.047408089 356:0.059893183 357:0.047469709 358:-0.024087189 359:0.022717742 360:-0.031882577 361:-0.050833568 362:-0.069522649 363:0.062518068 364:0.028267983 365:-0.0062163319 366:-0.016687782 367:0.016761251 368:0.041679394 369:0.0027966213 370:-0.029178333 371:0.052953262 372:0.016439391 373:-0.052093789 374:-0.031811625 375:-0.077839151 376:0.063822091 377:0.036840294 378:-6.3502921e-05 379:-0.022027712 380:0.0062939129 381:-0.034953099 382:0.038084432 383:0.037408303 384:0.040942736 385:0.080250181 386:-0.024956137 387:-0.096888818 388:0.052672397 389:-0.057057194 390:-0.0314316 391:0.044642363 392:-0.017652346 393:0.019085471 394:-0.0077623446 395:-0.031032516 396:-0.12295849 397:0.03431724 398:0.04136242 399:-0.071523808 400:-0.02470508 401:0.039450608 402:-0.049971495 403:-0.017099226 404:0.07210318 405:-0.097391672 406:-0.071706451 407:0.05025943 408:-0.06042761 409:-0.03091017 410:0.077637576 411:0.014059086 412:0.020368049 413:-0.048937496 414:-0.040496007 415:0.0058206236 416:-0.021426255 417:-0.025373276 418:-0.00606788 419:-0.020633671 420:-0.018487861 421:-0.065756574 422:0.062405258 423:0.030077498 424:-0.026787894 425:-0.02146126 426:0.059772715 427:0.040255025 428:0.050609712 429:0.0067068329 430:-0.044944353 431:0.056755926 432:0.0084664235 433:-0.062566668 434:-0.063119695 435:0.01564014 436:0.038545296 437:0.039118152 438:-0.050363034 439:0.0047754068 440:0.058972463 441:-0.07627476 442:0.034755632 443:-0.0093034385 444:0.0098055555 445:-0.04955529 446:-0.010090542 447:0.018219119 448:-0.010649257 449:0.014574912 450:-0.044005081 451:-0.037093908 452:0.0034558354 453:-0.027923143 454:-0.030762181 455:-0.044240609 456:0.0039873463 457:-0.040278945 458:0.011576248 459:-0.0051865689 460:0.062097475 461:0.027013464 462:0.0077058976 463:0.065562889 464:-0.00013498898 465:-0.035547391 466:-0.0054104961 467:0.068661138 468:-0.043747593 469:0.03640569 470:-0.033551116 471:0.055914283 472:0.011481142 473:0.0074323183 474:-0.0013506025 475:-0.017762786 476:0.050598316 477:-0.026731987 478:0.057613306 479:0.022812964 480:-0.022135297 481:-0.0041500167 482:-0.024150176 483:0.072792888 484:0.071697325 485:0.013469258 486:-0.040920358 487:-0.080262028 488:-0.0014366022 489:-0.068484671 490:-0.038964171 491:-0.062627293 492:-0.015784077 493:0.040263459 494:-0.13633919 495:0.093212619 496:-0.004377821 497:-0.091259003 498:0.075574473 499:0.089971639 500:-0.064525805 501:-0.02536686 502:-0.022424297 503:-0.047934722 504:0.018122489 505:0.04399864 506:0.058989599 507:-0.083475865 508:-0.020652702 509:-0.0059047923 510:-0.084718078 511:0.02438812 512:-0.057594813 
-0.0077406737028566149 0.73566070064371725 1.2249562326876597 0 1:-0.0088590253 2:-0.010952328 3:-0.044481605 4:-0.035461023 5:-0.023646343 6:-0.078762263 7:0.094267681 8:0.0022569129 9:0.0014923188 10:0.012018792 11:-0.0059341821 12:-0.0051920833 13:-0.022648403 14:-0.033610098 15:-0.00727621 16:0.065426975 17:-0.068277344 18:-0.046013307 19:-0.028363591 20:-0.0022455186 21:-0.070420943 22:-0.011069201 23:-0.027272297 24:-0.054606814 25:0.0023472256 26:0.017693276 27:-0.0032636183 28:-0.15859637 29:0.028250564 30:-0.09055119 31:-0.031643059 32:0.049668919 33:-0.0051920954 34:0.13784577 35:-0.034703825 36:0.030223908 37:0.058268048 38:-0.027169198 39:-0.057493925 40:0.012572472 41:0.032417111 42:-0.088858776 43:-0.0027886981 44:0.021437347 45:-0.055279229 46:-0.0096889129 47:-0.057441439 48:0.056108873 49:-0.00076157617 50:0.036835305 51:0.031262897 52:0.042469166 53:-0.026154043 54:-0.0058840737 55:-0.0015592882 56:-0.056248669 57:-0.02935007 58:-0.019616457 59:-0.042330608 60:0.052884735 61:-0.01419556 62:0.015426365 63:0.039035887 64:0.025507187 65:0.015063275 66:-0.068384387 67:-0.056092739 68:0.019170372 69:0.01089751 70:-0.059611075 71:-0.036958028 72:-0.056556582 73:0.057295177 74:0.023355851 75:0.042075891 76:0.015378337 77:0.016784584 78:-0.026579389 79:-0.037895329 80:-0.023125935 81:-0.02064044 82:-0.020360354 83:-0.044613995 84:-0.046942763 85:-0.030517312 86:0.021742888 87:0.035522107 88:-0.02939897 89:0.023130633 90:-0.0048909946 91:0.014862356 92:0.0063887346 93:-0.05684223 94:-0.0085466867 95:-0.05561953 96:0.013335464 97:0.0027995778 98:-0.019753277 99:-0.11373001 100:-0.00034306463 101:0.0098248981 102:-0.052364074 103:0.017745517 104:-0.010942327 105:-0.091838606 106:-0.084412962 107:0.07459081 108:-0.009721335 109:-0.02071516 110:-0.067699619 111:0.020192577 112:-0.071646795 113:0.028362686 114:0.035154942 115:0.013399923 116:-0.0093543725 117:-0.040358122 118:-0.041321397 119:-0.025235355 120:0.01481327 121:0.034044527 122:0.016213473 123:0.032516945 124:0.021366684 125:-0.087779775 126:-0.091299944 127:-0.036079064 128:-0.019653257 129:0.04403995 130:0.03929818 131:-0.013698844 132:-0.07497251 133:-0.0086904019 134:0.017161766 135:-0.05824798 136:-0.020437971 137:0.030411648 138:-0.043244019 139:-0.034454208 140:0.030990709 141:0.075021043 142:0.029889109 143:0.0061160433 144:0.027290184 145:0.012840101 146:0.0050235023 147:0.030999491 148:0.046644453 149:-0.0035940844 150:-0.010574164 151:0.017372917 152:0.047215678 153:-0.042617872 154:-0.053960733 155:0.000201729 156:-0.010004745 157:-0.049350537 158:0.054914109 159:-0.019553224 160:0.035048932 161:0.02647203 162:0.013847576 163:-0.0055233003 164:-0.025956854 165:0.0077873371 166:0.033139322 167:-0.080907814 168:0.07651867 169:-0.018009404 170:0.010586924 171:0.05828407 172:-0.0077642705 173:0.024783125 174:0.03031823 175:0.035302151 176:-0.049460746 177:-0.046533197 178:-0.042467602 179:-0.039228983 180:0.05615899 181:-0.0098489365 182:0.069705874 183:0.044540629 184:-0.044581529 185:-0.017148947 186:-0.053367075 187:0.049964275 188:-0.090668902 189:-0.028684016 190:0.005733029 191:-0.0086668162 192:0.035323199 193:0.010143358 194:-0.025210544 195:-0.044987962 196:-0.048077747 197:0.0049563879 198:0.022055028 199:0.017261771 200:-0.026403252 201:0.0091733709 202:-0.046079498 203:0.0016156689 204:0.035328899 205:0.016286442 206:-0.076395229 207:0.093052991 208:0.0033213098 209:-0.052008085 210:0.055826683 211:0.0013053671 212:-0.041733373 213:0.009146614 214:0.023294466 215:0.024324069 216:-0.0027690881 217:0.040243663 218:-0.01565294 219:0.038856357 220:0.048170235 221:-0.0026393414 222:-0.033816062 223:0.03477129 224:-0.069181845 225:0.037737459 226:0.01069381 227:0.031280492 228:-0.0090151802 229:-0.018856829 230:0.028178878 231:-0.014079995 232:0.026609313 233:-0.030306423 234:0.0002575113 235:-0.059592582 236:0.029998792 237:-0.0033667146 238:0.016025331 239:0.0059027523 240:-0.04720863 241:0.008824924 242:-0.077661432 243:-0.0338673 244:0.014002445 245:0.037430156 246:0.071602471 247:0.050816175 248:-0.023499379 249:0.058879685 250:-0.056948844 251:-0.0062571741 252:0.025098102 253:0.044506624 254:0.01359785 255:-0.085256636 256:-0.026475836 257:-0.060403239 258:-0.01834877 259:-0.018238537 260:0.061806303 261:0.052218862 262:0.037972189 263:-0.098266698 264:-0.051407304 265:-0.036010008 266:0.0068439245 267:-0.011305177 268:-0.064072877 269:-0.055599388 270:-0.048914924 271:0.055150922 272:0.0069354 273:-0.057393581 274:0.005941492 275:0.07101889 276:0.030282296 277:-0.039803471 278:-0.010739568 279:0.022446232 280:0.16567266 281:-0.049870417 282:-0.013186514 283:-0.053303562 284:-0.028482316 285:-0.095588505 286:-0.050280377 287:-0.058667041 288:0.025338301 289:0.04966801 290:0.087483577 291:-0.040644396 292:0.015956942 293:0.034116358 294:0.010894686 295:0.035932627 296:0.01774581 297:-0.069077432 298:-0.032343749 299:-0.036465056 300:0.080057442 301:-0.060238425 302:-0.04500873 303:0.031276632 304:0.070570789 305:-0.0046980283 306:-0.072095647 307:0.0069991471 308:0.008685845 309:0.014093271 310:-0.048076935 311:-0.034408938 312:0.032504346 313:0.0032990563 314:-0.037504733 315:0.035082422 316:0.0078309486 317:0.080405787 318:-0.051587988 319:0.057148363 320:-0.059707545 321:0.012668508 322:0.0046831607 323:-0.022212343 324:0.013459456 325:-0.0098693175 326:0.015915783 327:-0.033724636 328:0.039187115 329:-0.098061189 330:0.031433962 331:0.043162294 332:0.016681619 333:-0.030597536 334:0.045925569 335:-0.010606138 336:0.050899759 337:0.038910408 338:-0.0043508811 339:0.02292981 340:-0.015371061 341:-0.029268568 342:-0.02454563 343:0.035763633 344:-0.081586599 345:0.053433366 346:-0.075474188 347:-0.033543013 348:0.0075578559 349:-0.027264163 350:0.022197666 351:-0.072925031 352:-0.0045103678 353:0.029521815 354:0.042007413 355:-0.0083929021 356:0.043058217 357:-0.0084090102 358:1.3952949e-06 359:0.0070198188 360:0.023685835 361:-0.0069530169 362:-0.061297733 363:0.04896925 364:-0.0099332668 365:-0.038706556 366:0.020888675 367:-0.014966572 368:0.075318694 369:0.016143562 370:-0.033592287 371:0.082982741 372:0.032151714 373:-0.020798454 374:-0.0027355803 375:-0.10880104 376:0.012352899 377:0.01626854 378:0.028001275 379:0.0031182021 380:-0.0011999604 381:-0.056760717 382:0.099804491 383:0.03961505 384:-0.021882115 385:0.072362669 386:-0.033504255 387:-0.072336011 388:0.050317898 389:-0.032900535 390:0.00057607942 391:0.043267354 392:-0.039319899 393:-0.009923744 394:-0.0013050574 395:-0.051234487 396:-0.12564944 397:-0.013108126 398:0.025802739 399:-0.049152292 400:-0.033085041 401:0.038174264 402:-0.041617326 403:-0.025429765 404:0.051262926 405:-0.09477552 406:-0.015467674 407:0.060469721 408:-0.0621267 409:-0.028115876 410:0.084698446 411:-0.018495176 412:-0.0068953424 413:-0.019123837 414:-0.021062771 415:-0.023238953 416:-0.038057588 417:-0.046970695 418:-0.04352951 419:-0.03219654 420:-0.025372041 421:-0.025013732 422:0.068427116 423:0.031581387 424:-0.020431031 425:0.0090519339 426:0.062709004 427:0.014444259 428:0.043905973 429:0.052677542 430:-0.038102057 431:0.036811903 432:-0.011426337 433:-0.028650193 434:-0.074690379 435:-0.019182885 436:-0.0038078611 437:-0.011817489 438:-0.052663982 439:-0.025950298 440:0.058952667 441:-0.085414939 442:0.05437674 443:-0.02078036 444:0.029517449 445:-0.046296645 446:-0.045161698 447:0.01043797 448:-0.03134596 449:-0.0036394373 450:-0.039256115 451:0.0031054546 452:-0.03001729 453:-0.031876754 454:-0.0081899213 455:-0.036660586 456:-0.029764779 457:-0.0087675462 458:0.013465527 459:0.024066618 460:0.063197084 461:0.059185605 462:0.057739623 463:0.10219693 464:0.0042676358 465:-0.064181961 466:0.02514465 467:0.10306347 468:-0.02660949 469:0.030197136 470:-0.035813 471:0.044865172 472:0.0097405016 473:0.012443731 474:0.0042439587 475:0.0046565137 476:0.058414053 477:-0.03684403 478:0.077129066 479:0.027226094 480:-0.031048104 481:-0.010859112 482:-0.011230479 483:0.051386148 484:0.047795624 485:0.02394522 486:-0.038329419 487:-0.017089829 488:-0.007546009 489:-0.09061525 490:-0.019232629 491:-0.065521561 492:-0.017303308 493:0.038636517 494:-0.094700314 495:0.06256295 496:-0.010989871 497:-0.082587346 498:0.080470793 499:0.099075519 500:-0.059868038 501:-0.004788944 502:-0.006464845 503:-0.058201183 504:0.030162141 505:-0.001801189 506:-0.0068813283 507:-0.052144364 508:-0.022824699 509:-0.014593228 510:-0.077806942 511:0.0069225216 512:-0.0038537763 
-0 0 0 0.61523339481239392 1:-0.031739958 2:-0.01390403 3:-0.072291568 4:-0.041716006 5:-0.025894379 6:-0.072060525 7:0.1072965 8:-0.010070753 9:0.0021200448 10:-0.0016700593 11:-0.019434687 12:-0.01271166 13:-0.02840795 14:-0.054852627 15:-0.00093203818 16:0.057926074 17:-0.051163189 18:-0.06426692 19:-0.014530906 20:-0.023342656 21:-0.068773925 22:-0.0076539479 23:-0.037116084 24:-0.034388464 25:0.0045712683 26:0.023202572 27:-0.0055227997 28:-0.1629774 29:0.033535518 30:-0.05987161 31:-0.026299423 32:0.063645072 33:0.0019738756 34:0.10969284 35:-0.052040406 36:0.019163096 37:0.035149708 38:-0.040488902 39:-0.028558524 40:0.010981631 41:0.025250364 42:-0.11411671 43:-0.0287749 44:0.0018132563 45:-0.037208326 46:-0.0067037395 47:-0.070846356 48:0.026259976 49:0.027337302 50:0.043222133 51:0.020440711 52:0.031732101 53:-0.038934533 54:-0.011713997 55:-0.015818505 56:-0.055538591 57:-0.013422431 58:-0.037493162 59:-0.015032348 60:0.047453467 61:-0.02012418 62:0.021134028 63:0.045976136 64:0.046615437 65:0.011523907 66:-0.051739879 67:-0.075180024 68:-0.0054364009 69:-0.036711004 70:-0.055001575 71:-0.064097703 72:-0.053280566 73:0.071984962 74:0.041343413 75:0.027093718 76:0.039648853 77:0.0021264758 78:-0.052438777 79:-0.035020255 80:-0.011698903 81:-0.0082506211 82:-0.03414442 83:-0.055488128 84:-0.039127357 85:0.017951984 86:-0.021925354 87:0.008913775 88:-0.02231444 89:0.040588938 90:-0.034432229 91:0.029562587 92:0.00017792359 93:-0.022039063 94:0.0053147264 95:-0.029471645 96:0.014671832 97:-0.028746987 98:-0.014323058 99:-0.095016569 100:0.0071908487 101:0.036477976 102:-0.063980684 103:0.026872508 104:-0.012189087 105:-0.081428647 106:-0.089038819 107:0.046519812 108:-0.018343464 109:-0.012500266 110:-0.079522513 111:0.02003156 112:-0.049273875 113:0.010751202 114:0.014891529 115:0.00086127035 116:-0.026594652 117:-0.076807939 118:-0.05154274 119:-0.014107684 120:0.034361742 121:0.029105918 122:-0.003320012 123:0.020743743 124:0.017101241 125:-0.070780933 126:-0.098486632 127:0.00024726885 128:-0.030316869 129:0.04484649 130:0.035101037 131:-0.015328071 132:-0.084377132 133:-0.013619032 134:0.026242057 135:-0.071884274 136:-0.0060341856 137:0.043514732 138:-0.036498349 139:-0.036646578 140:0.031229468 141:0.055802323 142:0.059371024 143:-0.016133381 144:0.031031167 145:0.030600123 146:-0.015368546 147:0.023235437 148:0.041827504 149:-0.013674077 150:0.007243616 151:0.0040619015 152:0.084577866 153:-0.010741568 154:-0.063467942 155:0.034175247 156:0.009748592 157:-0.052510086 158:0.045984037 159:0.015060755 160:0.030529976 161:0.041196276 162:-0.011219507 163:0.0068231858 164:-0.02366027 165:-0.011542285 166:0.0092030931 167:-0.037727777 168:0.098410524 169:-0.008266273 170:-0.0064134533 171:0.057205684 172:-0.0055802725 173:0.048759189 174:0.020363327 175:0.0034255523 176:-0.019464441 177:-0.06702622 178:-0.05854895 179:-0.01622526 180:0.039774135 181:0.0032346144 182:0.024124935 183:0.024035018 184:-0.032806393 185:-0.036635578 186:-0.048624452 187:0.045981411 188:-0.070507035 189:-0.057270851 190:0.0085293353 191:-0.028789902 192:0.010375069 193:0.02403583 194:-0.041459452 195:-0.02878065 196:-0.075830169 197:0.029042006 198:0.010931951 199:0.020819558 200:-0.046510473 201:-0.0079895947 202:-0.040256206 203:0.013744045 204:0.0287355 205:0.017151244 206:-0.071806237 207:0.11383446 208:-0.031971443 209:-0.025113441 210:0.058080681 211:0.020002253 212:-0.012866401 213:-0.0082019493 214:0.020908451 215:0.033439722 216:-0.013717056 217:0.025607483 218:-0.023721917 219:0.054428294 220:0.028869281 221:0.0089195836 222:-0.0075644641 223:0.027392864 224:-0.052800424 225:0.060847033 226:-0.038986921 227:0.022361631 228:-0.015844431 229:-0.030305602 230:0.038893476 231:-0.024164878 232:0.018378094 233:-0.047767896 234:0.016874827 235:-0.075459085 236:0.01792687 237:0.018788943 238:0.023695853 239:-0.02776509 240:-0.065634854 241:0.033940025 242:-0.074178405 243:-0.049629208 244:0.0067307022 245:0.02763487 246:0.066782333 247:0.031234464 248:-0.038360298 249:0.051793262 250:-0.062136188 251:-0.012789051 252:0.021802675 253:0.033267438 254:0.016513333 255:-0.080854125 256:-0.041437224 257:-0.06279926 258:-0.026032927 259:0.0059815808 260:0.05368467 261:0.044608057 262:0.050790619 263:-0.078862213 264:-0.041961059 265:0.0018557603 266:0.018094271 267:-0.0058404603 268:-0.06740465 269:-0.078258343 270:-0.089301988 271:0.06558501 272:-0.00020850611 273:-0.053868461 274:0.015701225 275:0.069449686 276:0.045813136 277:-0.027864899 278:0.002635903 279:0.013096443 280:0.1486714 281:-0.030832259 282:-0.0010473309 283:-0.033969726 284:-0.025676029 285:-0.09403643 286:-0.035091396 287:-0.064390332 288:0.017559586 289:0.054931011 290:0.076763511 291:-0.049727466 292:0.01778456 293:0.030420098 294:-0.0096332207 295:0.015833659 296:0.009014247 297:-0.044307634 298:-0.058477379 299:-0.019619258 300:0.10030118 301:-0.042391654 302:-0.038897488 303:0.03073691 304:0.044030543 305:-0.034751445 306:-0.047845162 307:0.0078415927 308:0.004238267 309:0.021527635 310:-0.061068591 311:-0.045251809 312:0.0036818038 313:0.019697968 314:-0.067451179 315:-7.1355193e-05 316:-0.0082674986 317:0.066159546 318:-0.048291102 319:0.048450507 320:-0.064143293 321:0.0062377858 322:0.012668732 323:-0.035759926 324:-0.013138168 325:0.008308433 326:-0.011383251 327:-0.0053217704 328:0.027494723 329:-0.10923764 330:0.029549072 331:0.052150678 332:0.029625345 333:-0.026646391 334:0.058977287 335:-0.047855873 336:0.030201519 337:0.0040894048 338:-0.02727567 339:0.04401553 340:-0.024773022 341:-0.0177586 342:-0.034164522 343:0.051912487 344:-0.07955496 345:0.05349103 346:-0.077937037 347:-0.0097131236 348:-0.027285689 349:-0.041787613 350:0.028728455 351:-0.075527228 352:-0.012889381 353:-0.0023279912 354:0.011294054 355:-0.014008878 356:0.062444728 357:0.004049181 358:-0.013205846 359:0.012546348 360:-0.004807441 361:-0.027673876 362:-0.069454677 363:0.05366981 364:0.017129637 365:0.010954382 366:0.024005836 367:0.010726094 368:0.064403027 369:-0.02175344 370:-0.022683503 371:0.09278252 372:0.024330556 373:-0.019165993 374:0.0059424951 375:-0.086091287 376:-0.009843939 377:0.013298159 378:0.026562758 379:-0.026690204 380:-0.012340196 381:-0.066140175 382:0.071939521 383:0.031142961 384:-0.0069084954 385:0.053034063 386:-0.024131171 387:-0.068644337 388:0.065274872 389:-0.037633367 390:0.024822356 391:0.069809005 392:-0.056267917 393:-0.0065551163 394:-0.020742252 395:-0.03092573 396:-0.10665273 397:-0.015255338 398:0.0062419022 399:-0.078658022 400:-0.04893253 401:0.025044596 402:-0.053706087 403:-0.043513216 404:0.07375215 405:-0.095831372 406:0.0039412319 407:0.047887146 408:-0.038740683 409:-0.044668656 410:0.059591778 411:-0.015677843 412:-0.0070634354 413:-0.022616385 414:-0.041916527 415:-0.012948098 416:-0.018267887 417:-0.028619619 418:-0.014295063 419:-0.055840302 420:-0.0034444006 421:-0.061940253 422:0.037157077 423:0.04929385 424:-0.031184219 425:-0.0004442966 426:0.065145172 427:0.018798383 428:0.061961155 429:0.068040289 430:-0.027655493 431:0.025830152 432:-0.014009464 433:-0.017643729 434:-0.056779981 435:-0.012634338 436:-0.032369684 437:-0.013110334 438:-0.056637958 439:-0.010247167 440:0.062257025 441:-0.070527963 442:0.053709231 443:-0.022024659 444:0.028659491 445:-0.047891021 446:-0.031782597 447:0.016792456 448:-0.017579474 449:-0.01766737 450:-0.031837951 451:-0.001996075 452:-0.045215841 453:-0.022729 454:-0.018322822 455:-0.055985682 456:-0.022753887 457:-0.013274868 458:0.0078934971 459:0.018657215 460:0.091475606 461:0.035506316 462:0.059415799 463:0.089133598 464:-0.0033431628 465:-0.048678122 466:0.027900925 467:0.088872477 468:-0.02122266 469:0.04156296 470:-0.059085477 471:0.016876983 472:-0.0015390352 473:0.016492628 474:0.017240468 475:0.019311564 476:0.053728078 477:-0.056282621 478:0.063636921 479:0.045441054 480:-0.036555231 481:0.0040651681 482:-0.038547795 483:0.046477109 484:0.049991053 485:0.038048111 486:-0.044865787 487:-0.046457648 488:-0.0057980879 489:-0.083325602 490:-0.012697603 491:-0.038343064 492:-0.0238057 493:0.056346267 494:-0.10406715 495:0.050333619 496:-0.00063452654 497:-0.074524298 498:0.04445463 499:0.11501426 500:-0.068992607 501:0.0014221504 502:0.00119976 503:-0.048219018 504:0.042930186 505:-0.0046792356 506:0.028011374 507:-0.036484279 508:-0.028479651 509:-0.014487167 510:-0.089817934 511:0.004819754 512:0.0044164076 
-0.31296988294480649 0.73754927959850003 0.10538283409003385 0.51338107230997387 1:-0.017551323 2:-0.0055960827 3:-0.097039714 4:-0.058476206 5:-0.010577362 6:-0.077560388 7:0.089294024 8:0.033410903 9:-0.018415321 10:0.040665757 11:-0.037022412 12:-0.001836539 13:-0.051932253 14:-0.079370178 15:0.016817534 16:0.068707317 17:-0.032812059 18:-0.053152774 19:-0.020336954 20:-0.020902967 21:-0.080560341 22:0.0059068529 23:-0.029070364 24:-0.033956703 25:0.018067302 26:0.021265497 27:-0.0034138476 28:-0.15033042 29:0.036839642 30:-0.047564838 31:-0.062044784 32:0.034722388 33:-0.017489117 34:0.1448954 35:-0.022215175 36:-0.0080283973 37:0.033654302 38:-0.054974753 39:-0.058496356 40:0.016039852 41:0.037994985 42:-0.080134615 43:-0.037683517 44:0.029775104 45:-0.053628694 46:0.00040073588 47:-0.040812831 48:0.029083416 49:0.0046941917 50:0.054320261 51:-0.0033364969 52:0.019518945 53:-0.012176047 54:-0.042830609 55:-0.0028763399 56:-0.029814379 57:-0.052215565 58:-0.036835626 59:-0.035436627 60:0.060116764 61:-0.034716483 62:0.037166283 63:0.030331666 64:0.048721999 65:0.018987764 66:-0.095464341 67:-0.062796354 68:0.027536074 69:-0.015386293 70:-0.07782425 71:-0.051255267 72:-0.048476882 73:0.034427892 74:0.031751513 75:0.039584309 76:0.034798689 77:-0.0016455064 78:-0.033337593 79:0.019977489 80:-0.041909374 81:0.0011926172 82:-0.044376947 83:-0.062517397 84:-0.032331947 85:-0.035716288 86:0.0017372601 87:-0.022757012 88:-0.012677207 89:0.048893042 90:-0.047989782 91:0.029863887 92:-0.00037461735 93:-0.046430178 94:-0.02156546 95:-0.042516697 96:0.014252923 97:-0.020933511 98:-0.0065929978 99:-0.103108 100:-0.01689335 101:0.014857615 102:-0.04157088 103:0.018293282 104:0.019393567 105:-0.083313562 106:-0.08924704 107:0.046612713 108:-0.02788163 109:-0.00098195509 110:-0.082119517 111:0.010621931 112:-0.078090407 113:0.043467984 114:0.029484397 115:0.013069749 116:-0.0014240962 117:-0.058195844 118:-0.010856485 119:-0.021626489 120:0.027024308 121:0.053223301 122:-0.0058279592 123:0.062071189 124:-0.007126424 125:-0.05795259 126:-0.055131905 127:-0.0038622515 128:-0.033442557 129:0.036881819 130:0.023928374 131:-0.02909122 132:-0.082015358 133:-0.003635769 134:-0.011052844 135:-0.049938325 136:-0.044355795 137:0.026927555 138:-0.038346481 139:-0.022302018 140:0.051496614 141:0.034988139 142:0.037962168 143:-0.0112095 144:0.0035402696 145:0.017470242 146:-0.019648239 147:0.0086307414 148:0.043164674 149:-0.0046987017 150:-0.0057420633 151:-0.0010520733 152:0.058863897 153:-0.00078950956 154:-0.049931686 155:0.0035101345 156:-0.008389066 157:-0.053476792 158:0.025356555 159:-0.012478951 160:0.021400874 161:0.026205737 162:0.0097593805 163:-0.020539267 164:-0.034149956 165:-0.0034353898 166:0.038149115 167:-0.048521679 168:0.10487394 169:-0.029008443 170:0.01174233 171:0.043211848 172:-0.007732572 173:0.038271699 174:0.050712436 175:0.016811365 176:-0.0032473048 177:-0.045579161 178:-0.019046925 179:-0.01726838 180:0.02761448 181:-0.0020443976 182:0.040783294 183:0.074028142 184:0.0094183646 185:-0.0073267086 186:-0.065787122 187:0.057649732 188:-0.081048295 189:-0.023224922 190:0.010026536 191:0.0089390883 192:0.016697867 193:0.039877567 194:-0.027230963 195:-0.022747295 196:-0.063276857 197:0.018846471 198:0.025200684 199:0.0095031215 200:-0.03224317 201:-0.0033028624 202:-0.062863015 203:0.037795622 204:-0.0031395338 205:0.0070108534 206:-0.070611879 207:0.12293392 208:0.0029729772 209:-0.030637629 210:0.051415388 211:-0.00078804774 212:-0.0092875594 213:-0.023322299 214:0.013289805 215:0.038843624 216:-0.0071365573 217:0.024664192 218:-0.022759525 219:0.010478553 220:0.035231575 221:-0.019965159 222:0.0058648065 223:0.022755001 224:-0.050428681 225:0.061614003 226:-0.010189923 227:0.036992721 228:-0.014071652 229:-0.007243413 230:0.05650394 231:-0.045942422 232:0.0046218988 233:-0.027448069 234:-0.014085748 235:-0.065095477 236:0.020628935 237:0.015450671 238:0.011969586 239:-0.0082140844 240:-0.043245785 241:0.0047943685 242:-0.082717702 243:-0.056385949 244:-0.005350207 245:0.038044959 246:0.082978942 247:0.039877109 248:-0.030623198 249:0.07947883 250:-0.063040309 251:0.01092109 252:0.070024557 253:0.05330056 254:0.015743332 255:-0.11693523 256:-0.039561406 257:-0.044816699 258:0.0077668414 259:-0.024421439 260:0.044713859 261:0.053748999 262:0.022002103 263:-0.10037231 264:-0.043593269 265:-0.023168214 266:0.0054115835 267:-0.0015853654 268:-0.046105139 269:-0.068345673 270:-0.080298811 271:0.048462115 272:-0.007430478 273:-0.04104083 274:0.0032972591 275:0.027429109 276:0.029691841 277:-0.050497361 278:0.0059724948 279:0.0090832356 280:0.15604375 281:-0.033699896 282:0.005411149 283:-0.031957604 284:-0.015640376 285:-0.085398152 286:-0.013251156 287:-0.037454549 288:0.014059022 289:0.048574574 290:0.082812168 291:-0.069882266 292:0.0037301125 293:0.030849066 294:0.027511789 295:0.026133165 296:0.006501351 297:-0.04107156 298:-0.05202632 299:-0.024585364 300:0.088451721 301:-0.042155985 302:-0.057772849 303:0.012722027 304:0.07425236 305:-0.025697747 306:-0.050646469 307:0.029653855 308:-0.01915081 309:-0.00066781603 310:-0.034960553 311:-0.053307436 312:0.014648541 313:-0.0021419285 314:-0.04325483 315:0.03984046 316:-0.013579887 317:0.051048435 318:-0.02119644 319:0.076507702 320:-0.09711796 321:0.0078216624 322:0.0011799101 323:-0.02927554 324:-0.00064525922 325:-0.010125291 326:0.0013855606 327:-0.012707178 328:0.033064671 329:-0.11191171 330:0.053864755 331:0.044296343 332:0.036644351 333:-0.049252257 334:0.049807191 335:-0.030902186 336:0.042866386 337:0.018430503 338:0.0046248091 339:0.015803253 340:0.020687301 341:-0.016652811 342:-0.013527819 343:0.048901189 344:-0.05437886 345:0.036659852 346:-0.072548099 347:-0.0084206574 348:0.0023685347 349:-0.035460405 350:0.04563807 351:-0.06000676 352:0.008557111 353:-0.00035646514 354:0.012598434 355:-0.023376759 356:0.040930711 357:0.0062468452 358:-0.031223753 359:0.018403817 360:-0.043641344 361:-0.023705676 362:-0.098569281 363:0.03768995 364:0.0037622289 365:-0.021465046 366:0.052901141 367:0.0071765715 368:0.063724063 369:0.011209931 370:0.0035939796 371:0.056544743 372:0.04548537 373:-0.0066285413 374:-0.033952635 375:-0.087664776 376:0.010668846 377:0.023737166 378:0.014040368 379:0.011543526 380:-0.015314146 381:-0.062693015 382:0.065880865 383:0.04626181 384:-0.011916093 385:0.07977736 386:-0.014924752 387:-0.035910729 388:0.058335762 389:-0.019427942 390:-0.0040369025 391:0.025403142 392:-0.01509221 393:-0.015283101 394:-0.016318221 395:-0.023256602 396:-0.11105447 397:-0.021696454 398:0.01040116 399:-0.041897804 400:-0.02871472 401:0.022015372 402:-0.040479589 403:-0.01332331 404:0.08657892 405:-0.087953284 406:-0.017743992 407:0.059302818 408:-0.035230406 409:-0.022748267 410:0.065134659 411:-0.011229657 412:0.0030142209 413:-0.033459224 414:-0.034213606 415:-0.031750504 416:-0.02694303 417:-0.0043624765 418:-0.045344092 419:-0.023302129 420:-0.031628314 421:-0.031032816 422:0.067561544 423:0.064458512 424:0.0063053854 425:0.0096895117 426:0.04227826 427:0.034032304 428:0.037990883 429:0.021172756 430:-0.034634028 431:0.04061145 432:-0.017376835 433:-0.023442732 434:-0.061086074 435:-0.0023902815 436:-0.021520404 437:0.0078187184 438:-0.056125339 439:-0.027388351 440:0.085125849 441:-0.12434813 442:0.034713861 443:-0.025623411 444:0.013648881 445:-0.022013569 446:-0.034219973 447:0.020692568 448:-0.020325918 449:-0.010246499 450:-0.067024395 451:0.016984859 452:-0.033434905 453:0.015791345 454:-0.0038839101 455:-0.039932858 456:-0.034270119 457:-0.0042166119 458:0.030213365 459:-0.00062220736 460:0.052525215 461:0.07622803 462:0.067453824 463:0.073911443 464:0.003414334 465:-0.02670539 466:0.023368539 467:0.10165535 468:-0.063463204 469:0.042217445 470:-0.052515127 471:0.022547644 472:0.0028024598 473:0.0086560762 474:0.037299912 475:0.0089895707 476:0.077893876 477:-0.033201434 478:0.069888383 479:0.033109728 480:-0.017164541 481:0.019780701 482:-0.017750571 483:0.036970843 484:0.05221045 485:0.051467147 486:-0.056413896 487:-0.057710968 488:-0.039777558 489:-0.080356441 490:-0.0098966016 491:-0.064130969 492:-0.041311845 493:0.026683187 494:-0.11058642 495:0.047959328 496:-0.025393892 497:-0.054478176 498:0.069718659 499:0.0935819 500:-0.056265756 501:-0.0090960134 502:-0.0072152447 503:-0.039366085 504:0.032715917 505:-0.018709749 506:-0.010582547 507:-0.092417732 508:0.011487297 509:-0.0023508165 510:-0.10277466 511:-0.0080667967 512:-0.017552381 
-0.38933512359191491 0 0 1.0459935974818402 1:-0.023571987 2:-0.0093434528 3:-0.032249365 4:-0.02989836 5:-0.016338378 6:-0.072172947 7:0.087064303 8:-0.017544143 9:0.020059818 10:0.0017785912 11:-0.018167499 12:0.00067575916 13:-0.026448498 14:-0.027766867 15:-0.006123486 16:0.060133625 17:-0.051792931 18:-0.049015459 19:-0.015079044 20:-0.02621519 21:-0.08977484 22:0.037695602 23:-0.02882551 24:-0.049693037 25:-0.017847553 26:0.027198179 27:-0.022829864 28:-0.16998264 29:0.019620899 30:-0.079917945 31:-0.037321813 32:0.058503404 33:0.033642069 34:0.10432089 35:-0.030237097 36:0.033162743 37:0.046058014 38:-0.02715167 39:-0.034530956 40:0.012093049 41:0.045532372 42:-0.10517053 43:0.0064569819 44:-0.0048936866 45:-0.072580181 46:-0.015100031 47:-0.075528607 48:0.044741508 49:-0.019552127 50:0.028784258 51:0.032142051 52:0.05938695 53:-0.052660171 54:-0.026359405 55:-0.016149664 56:-0.071291976 57:-0.010419783 58:-0.043138582 59:-0.020266036 60:0.037829209 61:-0.012982667 62:0.019340493 63:0.062210985 64:0.033045832 65:-0.01217362 66:-0.052647397 67:-0.060589928 68:0.0038257858 69:-0.0024544094 70:-0.036494397 71:-0.01979273 72:-0.062172491 73:0.081455797 74:0.029998533 75:0.025708681 76:0.019286452 77:0.0066694878 78:-0.030082619 79:-0.02884049 80:-0.019666418 81:0.010725624 82:-0.023908721 83:-0.083821028 84:-0.036223006 85:0.0019241048 86:0.0033307406 87:0.043873675 88:-0.027349913 89:0.0026192684 90:-0.042650227 91:0.013640836 92:-0.0044974983 93:-0.023828503 94:0.0081891455 95:-0.037510481 96:0.003585886 97:-0.022980867 98:-0.015977081 99:-0.10588832 100:-0.0092961844 101:0.039734095 102:-0.0400136 103:0.010449237 104:-0.011058504 105:-0.066918425 106:-0.093277685 107:0.0821568 108:-0.017674502 109:0.00060152187 110:-0.075425476 111:0.017903633 112:-0.069262579 113:0.0037067945 114:0.021129765 115:0.010311629 116:-0.027459366 117:-0.038586497 118:-0.044634257 119:-0.01483443 120:0.014564238 121:0.013021564 122:-0.0036167551 123:-0.0078060823 124:0.015223048 125:-0.093801863 126:-0.094385251 127:-0.0053480826 128:-0.0099824499 129:0.047146641 130:0.068766005 131:-0.0055704354 132:-0.08912392 133:-0.0073994771 134:0.0077071874 135:-0.08357805 136:-0.0057642329 137:0.017370433 138:-0.042577267 139:-0.006941027 140:0.041416384 141:0.073419072 142:0.059106581 143:0.023087591 144:0.036588449 145:0.015422884 146:-0.029749185 147:0.023561204 148:0.031733487 149:-0.02096872 150:-0.0017842493 151:0.026531145 152:0.043391839 153:-0.02386833 154:-0.064745881 155:0.032767363 156:-0.005421327 157:-0.038469102 158:0.037925657 159:-0.0096777165 160:0.024657605 161:0.020518059 162:0.010079881 163:0.0079926308 164:-0.016866447 165:0.0015999 166:0.012935638 167:-0.066169657 168:0.099748388 169:-0.017971165 170:2.7255869e-06 171:0.049709797 172:-0.017388592 173:0.028121343 174:0.0370459 175:0.011766762 176:-0.039142307 177:-0.055726245 178:-0.052788604 179:-9.5446347e-05 180:0.065645479 181:-0.021507287 182:0.026139304 183:0.037553128 184:-0.040872999 185:-0.027594725 186:-0.036956236 187:0.047424458 188:-0.060001057 189:-0.036842313 190:0.021095799 191:-0.0034256727 192:0.028770657 193:0.0074482639 194:-0.017971775 195:-0.0069181761 196:-0.068441257 197:0.020201752 198:0.014602346 199:0.035645917 200:-0.031483766 201:0.0053874524 202:-0.046752479 203:0.0066930861 204:0.027657134 205:-0.006726658 206:-0.067771085 207:0.10672662 208:0.0045958972 209:-0.036426552 210:0.045499355 211:-0.0013614983 212:-0.030191854 213:0.0013513069 214:0.033939566 215:0.031028222 216:-0.027226988 217:0.045193296 218:-0.028231949 219:0.032266282 220:0.044954032 221:2.8807865e-06 222:-0.021804111 223:0.033909474 224:-0.052803751 225:0.059363965 226:-0.031284962 227:0.013116438 228:-0.037127104 229:-0.0098355366 230:0.027925855 231:0.0010379998 232:0.026935607 233:-0.033771593 234:0.011804831 235:-0.089197226 236:0.00077451993 237:0.015035179 238:0.016823998 239:0.0014235963 240:-0.05983147 241:0.038617928 242:-0.10236358 243:-0.030271787 244:0.015791338 245:0.015788225 246:0.073115215 247:0.059101533 248:-0.021408446 249:0.042635459 250:-0.064710267 251:-0.0024245649 252:-0.00054543384 253:0.03551627 254:0.021062329 255:-0.085179962 256:-0.023317169 257:-0.067872085 258:-0.036821112 259:-0.018790411 260:0.055437859 261:0.035438165 262:0.055478234 263:-0.076496683 264:-0.053590711 265:-0.021164954 266:0.040079497 267:0.011911451 268:-0.062559664 269:-0.051876377 270:-0.050704166 271:0.076937474 272:-0.005441742 273:-0.040188644 274:-0.0016748072 275:0.069901936 276:0.042932354 277:-0.027032251 278:-0.0044912351 279:0.028956736 280:0.1544449 281:-0.016261522 282:-0.0021590814 283:-0.033550449 284:-0.041590519 285:-0.099492215 286:-0.040373936 287:-0.082876168 288:0.014980666 289:0.079043411 290:0.09527161 291:-0.044636581 292:0.0027277344 293:0.0452694 294:-0.015421628 295:0.027968999 296:0.0075488407 297:-0.070721947 298:-0.058050502 299:-0.016987501 300:0.086094968 301:-0.052480325 302:-0.042689934 303:0.032242831 304:0.057762668 305:-0.043517351 306:-0.069690295 307:-0.0073663988 308:-0.011691141 309:0.018834053 310:-0.063312009 311:-0.025672292 312:0.024970874 313:0.018728651 314:-0.05234291 315:0.016030636 316:-0.019202538 317:0.079708099 318:-0.037147731 319:0.046238702 320:-0.059447262 321:0.0083907712 322:0.029689256 323:-0.025012387 324:0.0039598644 325:-0.018686105 326:0.019649295 327:-0.030112982 328:0.044536706 329:-0.074949391 330:0.034361925 331:0.037598725 332:0.014622629 333:-0.031456191 334:0.04880175 335:-0.033359092 336:0.034155603 337:0.031341333 338:-0.033911604 339:0.033341989 340:-0.021545447 341:-0.030042969 342:-0.038970646 343:0.035308287 344:-0.093233839 345:0.040512905 346:-0.078459159 347:-0.038617998 348:-0.037927456 349:-0.039227176 350:0.0098118642 351:-0.080246866 352:-0.0061160815 353:0.0028423194 354:0.03278375 355:-0.015182273 356:0.038272724 357:-0.012590531 358:-0.0044621774 359:0.010325967 360:0.014680623 361:-0.016087739 362:-0.038521823 363:0.055339098 364:0.0099877119 365:-0.013086644 366:0.028364437 367:-0.0056059225 368:0.089608856 369:-0.016285202 370:-0.030793075 371:0.070054233 372:0.014630921 373:-0.023473643 374:0.017107515 375:-0.071432471 376:0.0068774279 377:-0.0060707633 378:0.043091353 379:-0.0023705999 380:0.018608773 381:-0.056550469 382:0.089641884 383:0.017671943 384:0.00086680753 385:0.084469274 386:-0.021097407 387:-0.067287453 388:0.058088206 389:-0.015293624 390:0.015481621 391:0.064825743 392:-0.058228582 393:-0.0049916003 394:-0.0038158321 395:-0.057582069 396:-0.10991891 397:-0.026641015 398:0.010304381 399:-0.08511769 400:-0.033935346 401:0.014014871 402:-0.068894193 403:-0.052173588 404:0.076800317 405:-0.072963662 406:-0.0062922956 407:0.045523696 408:-0.045297414 409:-0.032371633 410:0.050313994 411:-0.019286726 412:-0.016544119 413:0.014141584 414:-0.023266517 415:-0.023190839 416:-0.0043577137 417:-0.051566031 418:-0.027976759 419:-0.043063994 420:-0.014183926 421:-0.052325804 422:0.020017311 423:0.041832626 424:-0.045933276 425:-0.011717232 426:0.053477518 427:0.0072767888 428:0.047839697 429:0.056439683 430:-0.017678561 431:0.027332826 432:-0.015480316 433:-0.028721722 434:-0.050671369 435:-0.013819006 436:-0.012917916 437:-0.02584948 438:-0.055516828 439:-0.022674229 440:0.083935186 441:-0.065620743 442:0.063337602 443:-0.011647717 444:0.022585802 445:-0.042092893 446:-0.055360142 447:-0.01055474 448:-0.028400986 449:-0.010654581 450:-0.041051462 451:-0.037003633 452:-0.031742252 453:-0.026362022 454:-0.019599851 455:-0.060970917 456:-0.038208406 457:-0.023820492 458:0.0053462768 459:-0.0031309021 460:0.10053153 461:0.042900864 462:0.041187257 463:0.11551061 464:0.0067901048 465:-0.061013918 466:0.017088696 467:0.09667889 468:-0.028045863 469:0.024147086 470:-0.043961409 471:0.027439898 472:-0.0042037126 473:0.0083517823 474:0.0019447258 475:-0.00809965 476:0.046558894 477:-0.031399839 478:0.055596393 479:0.026474629 480:-0.010474456 481:-0.0083412239 482:-0.027068842 483:0.04394231 484:0.039232358 485:0.045322847 486:-0.034347773 487:-0.022324523 488:0.00013031173 489:-0.09146443 490:-0.018453162 491:-0.038526032 492:-0.034165207 493:0.056820784 494:-0.10523093 495:0.039935321 496:-0.01281881 497:-0.060431384 498:0.073222928 499:0.097749814 500:-0.073588789 501:0.0091754943 502:0.022574984 503:-0.053362623 504:0.059996225 505:-0.009396336 506:0.0081945891 507:-0.02932079 508:-0.053468596 509:-0.019679975 510:-0.080789469 511:-0.0069291373 512:0.012382386 
-0 -0.057509007264593966 0 0.1725118875069841 1:0.0003572047 2:0.0057283775 3:-0.065078259 4:0.0056801741 5:0.011598255 6:-0.048360817 7:0.088512458 8:0.010058198 9:0.013791427 10:0.0090905027 11:0.011795099 12:0.024385124 13:0.011297517 14:-0.030844299 15:0.0064482084 16:0.029236147 17:-0.042868752 18:0.039547518 19:-0.012598086 20:0.059471458 21:-0.020839745 22:-0.01160542 23:-0.019488188 24:-0.032870438 25:0.0084414538 26:0.0024451942 27:-0.023273533 28:-0.052617084 29:-0.0027727117 30:-0.010784492 31:-0.017037326 32:0.024797518 33:-0.023484539 34:0.044758819 35:0.031575195 36:-0.045681685 37:0.042336758 38:-0.028050005 39:-0.01035249 40:0.033309557 41:0.0097602 42:-0.043510955 43:-0.041738484 44:0.038620457 45:-0.035655484 46:0.020923868 47:-0.046814322 48:0.028368477 49:0.007408882 50:0.038901381 51:-0.023591677 52:-0.052811708 53:-0.044481482 54:0.015650313 55:-0.025135815 56:-0.016328122 57:-0.021794245 58:0.013816549 59:-0.05285288 60:0.0054321266 61:-0.0046244911 62:0.1192541 63:-0.048262961 64:-0.034248993 65:-0.01894369 66:-0.0070166579 67:-0.019660342 68:-0.046475962 69:0.028101726 70:-0.054729108 71:-0.025866689 72:0.02580801 73:-0.055268873 74:0.0095077306 75:0.032587443 76:-0.0089055495 77:-0.00048582544 78:-0.032947548 79:-0.039410673 80:-0.028814828 81:-0.052126594 82:-0.023230921 83:-0.0016600528 84:-0.081610419 85:-0.02724939 86:-0.018247223 87:0.0067224121 88:-0.012330642 89:-0.046434745 90:0.0054377601 91:0.042418957 92:-0.016342089 93:0.024153592 94:-0.047628131 95:0.053648822 96:0.014074243 97:0.027375249 98:-0.044228077 99:-0.13268805 100:0.075632915 101:-0.051335383 102:0.003122757 103:0.051528972 104:0.049092889 105:-0.073189981 106:-0.0551228 107:0.014113418 108:0.039714482 109:-0.065834299 110:0.031496778 111:0.017471943 112:-0.051694751 113:-0.013748175 114:-0.0048526707 115:-0.043488007 116:-0.091914281 117:0.015973428 118:0.069047377 119:-0.058241896 120:0.015374823 121:-0.0048237797 122:0.066594861 123:0.047365926 124:0.016913788 125:-0.063191928 126:-0.014192211 127:-0.030597163 128:-0.065666117 129:-0.039298959 130:-0.042762272 131:-0.038402811 132:-0.059951048 133:0.033663023 134:-0.036738556 135:-0.035734363 136:-0.024221048 137:0.040313531 138:-0.01318075 139:-0.0005626927 140:0.069197819 141:0.052059382 142:-0.0066881869 143:-0.053971697 144:0.063799553 145:0.018532466 146:0.037323985 147:-0.042003859 148:-0.0040200865 149:0.026098853 150:-0.026038807 151:0.039564174 152:-0.0059109186 153:-0.063078433 154:-0.0090091145 155:0.038596403 156:-0.058636047 157:-0.0424297 158:0.1095483 159:-0.028848657 160:0.09466216 161:0.011548962 162:0.0059732636 163:-0.055657186 164:0.085809521 165:-0.0018637348 166:0.068135142 167:-0.0072725071 168:-0.03360017 169:0.02520136 170:0.038407728 171:-0.031230621 172:0.097950622 173:-0.0044550854 174:-0.01545128 175:0.053299196 176:-0.021219941 177:0.0099725882 178:0.0059177568 179:-0.045561228 180:0.012128641 181:-0.020665394 182:0.027509777 183:-0.0018866505 184:0.032510214 185:-0.0040678023 186:-0.019239843 187:0.059589293 188:-0.051761031 189:0.016832193 190:0.010198849 191:0.047969323 192:-0.013958956 193:0.065411709 194:-0.013794455 195:-0.061784413 196:-0.014263652 197:-0.020667346 198:0.033313908 199:-0.017584186 200:-0.0030765643 201:0.066334806 202:0.0065791984 203:-0.0081261536 204:-0.010884088 205:0.080212258 206:0.027736483 207:-0.021189906 208:-0.01463282 209:-0.047047496 210:0.059386119 211:0.019661739 212:-0.09551324 213:0.00021492771 214:-0.021163976 215:-0.010026939 216:-0.0033366703 217:-0.022846391 218:-0.036894329 219:-0.01099486 220:0.046692122 221:-0.0045305328 222:-0.042021245 223:-0.02242906 224:-0.035181452 225:-0.01414367 226:0.051459391 227:0.12095841 228:0.0024399064 229:-0.077066787 230:0.069255374 231:-0.022279175 232:0.023458788 233:-0.043391943 234:-0.09982761 235:-0.025888473 236:0.12560444 237:-0.027426573 238:0.063653074 239:-0.0080498653 240:0.017314063 241:-0.035681564 242:0.022017621 243:0.0051920679 244:0.032809678 245:0.015993211 246:0.015864009 247:0.074641384 248:0.049470916 249:0.023388483 250:0.039230131 251:-0.043299664 252:0.039407261 253:0.016458569 254:0.010380987 255:0.00027241281 256:0.019853583 257:-0.0033511259 258:0.032111339 259:-0.0085113244 260:0.074960813 261:0.036603399 262:0.054861482 263:-0.036136858 264:-0.014985324 265:-0.016793177 266:-0.015042219 267:-0.088824637 268:0.010621915 269:-0.049123842 270:-0.084554113 271:-0.021438641 272:-0.051142376 273:-0.001823126 274:0.074754916 275:0.076774843 276:0.008549558 277:-0.034450512 278:-0.072660536 279:-0.0074736341 280:0.02269843 281:-0.045157962 282:0.029896682 283:-0.093440406 284:-0.030786291 285:-0.075656287 286:-0.10659474 287:-0.030112766 288:0.023464808 289:-0.047688879 290:0.064834684 291:-0.089839377 292:-0.040889032 293:0.017183412 294:0.01311113 295:0.031734355 296:-0.067358837 297:-0.032509394 298:-0.049891893 299:-0.04097518 300:0.0020008178 301:-0.042164505 302:-0.035965268 303:0.07054019 304:0.024249375 305:0.020014418 306:0.012192553 307:-0.00065408455 308:-0.0048481529 309:0.0066876928 310:-0.0073786238 311:0.028446347 312:0.098033942 313:0.056435879 314:0.00054327608 315:0.033018183 316:0.038540054 317:-0.026486201 318:0.019858871 319:-0.0034772262 320:-0.079608411 321:0.026020149 322:-0.042997275 323:-0.038681388 324:0.074575782 325:0.006322179 326:0.016817342 327:-0.0040456117 328:0.0051221307 329:-0.088309653 330:0.0087224413 331:-0.010147163 332:-0.0024930225 333:-0.044315621 334:0.079012983 335:-0.012305294 336:0.047938406 337:0.024460405 338:-0.028779503 339:0.015778879 340:0.0042467644 341:0.029620977 342:0.013095878 343:0.047338683 344:-0.039153397 345:0.0058067343 346:-0.030542025 347:0.028209971 348:0.072620496 349:-0.078130208 350:0.031038946 351:-0.089087047 352:0.08304695 353:0.060889367 354:0.026771616 355:-0.0030527019 356:0.05851122 357:0.11296852 358:0.01243923 359:0.076308511 360:-0.029318053 361:-0.052263461 362:0.038574196 363:0.024305481 364:-0.04085809 365:-0.048491333 366:0.050201271 367:-0.060567636 368:0.030497266 369:-0.0077758315 370:-0.0046902797 371:0.013450262 372:-0.023755684 373:0.0064023496 374:0.0044911378 375:-0.072148241 376:0.043423072 377:0.045750294 378:0.030947274 379:-0.053543597 380:-0.037094388 381:0.004462739 382:0.026477294 383:0.062700644 384:-0.005373599 385:0.066678643 386:-0.022323715 387:-0.015817534 388:-0.014384739 389:-0.033057962 390:-0.0083348518 391:0.027883809 392:0.02145569 393:-0.037583895 394:-0.0055858926 395:0.0090467334 396:-0.046142798 397:0.042644706 398:0.044951104 399:-0.043260366 400:0.016843116 401:0.034784243 402:0.0035882348 403:-0.022425685 404:0.037145067 405:-0.097982794 406:-0.018958552 407:0.0015671942 408:-0.10221061 409:-0.0052556 410:0.020488754 411:-0.069661632 412:-0.013577169 413:-0.015948838 414:-0.033334251 415:0.0055541028 416:-0.023057681 417:0.035119597 418:-0.015879899 419:0.017008968 420:-0.088414527 421:0.029456384 422:0.064237021 423:-0.047906671 424:0.057382029 425:0.061737973 426:0.02155605 427:0.068447918 428:0.018934188 429:-0.013571847 430:-0.011677999 431:-0.019916529 432:0.012857748 433:-0.045924935 434:-0.089890659 435:0.0078766895 436:0.045702096 437:0.027026938 438:-0.0077160662 439:-0.0002747266 440:-0.063582316 441:-0.086764388 442:0.035304114 443:-0.030994983 444:0.0501443 445:-0.021710748 446:-0.028971354 447:0.096157499 448:-0.048080999 449:-0.063884899 450:0.015727488 451:0.021316219 452:-0.0024940851 453:-0.017656626 454:-0.012970679 455:-0.019048203 456:-0.048289854 457:0.047162436 458:0.057391889 459:0.047979895 460:-0.0023546114 461:0.032752492 462:0.095068544 463:-0.011115559 464:-0.033967335 465:-0.02438242 466:0.095104426 467:-0.02219061 468:-0.041282281 469:0.13227327 470:-0.066465996 471:0.078246906 472:0.05507553 473:0.034234397 474:-0.05679391 475:-0.001896765 476:-0.0030983749 477:-0.045165028 478:0.094427392 479:0.026106434 480:-0.010693402 481:-0.030975012 482:0.018913584 483:0.075388007 484:0.093753815 485:0.035421897 486:0.0133484 487:-0.048787821 488:-0.057667647 489:-0.037294365 490:-0.032783903 491:-0.026812769 492:-0.013391494 493:-0.048641425 494:-0.085168727 495:0.1252359 496:-0.033031009 497:-0.03526279 498:-0.0044765403 499:-0.005913252 500:-0.015736738 501:-0.018832967 502:-0.054192934 503:0.0016757672 504:-0.021074092 505:-0.022519326 506:0.050377712 507:-0.015608056 508:0.073357195 509:0.019650025 510:-0.0073104477 511:-0.053098414 512:-0.069600418 
